digraph Tree {
node [shape=box, style="rounded", color="black", fontname=helvetica] ;
edge [fontname=helvetica] ;
0 [label="Open <= 971.8\nmse = 32104.8\nsamples = 506\nvalue = 1009.2"] ;
1 [label="Open <= 839.3\nmse = 6266.5\nsamples = 209\nvalue = 817.6"] ;
0 -> 1 [labeldistance=2.5, labelangle=45, headlabel="True"] ;
2 [label="Open <= 769.8\nmse = 1771.7\nsamples = 138\nvalue = 769.6"] ;
1 -> 2 ;
3 [label="Prev. Close <= 746.9\nmse = 421.4\nsamples = 65\nvalue = 731.1"] ;
2 -> 3 ;
4 [label="Prev. Close <= 716.1\nmse = 174.7\nsamples = 46\nvalue = 721.1"] ;
3 -> 4 ;
5 [label="mse = 89.1\nsamples = 15\nvalue = 706.4"] ;
4 -> 5 ;
6 [label="mse = 69.5\nsamples = 31\nvalue = 727.9"] ;
4 -> 6 ;
7 [label="Open <= 747.5\nmse = 48.6\nsamples = 19\nvalue = 759.1"] ;
3 -> 7 ;
8 [label="mse = 10.6\nsamples = 2\nvalue = 741.0"] ;
7 -> 8 ;
9 [label="mse = 23.3\nsamples = 17\nvalue = 760.6"] ;
7 -> 9 ;
10 [label="Open <= 811.4\nmse = 343.9\nsamples = 73\nvalue = 805.7"] ;
2 -> 10 ;
11 [label="Open <= 790.8\nmse = 175.5\nsamples = 47\nvalue = 793.9"] ;
10 -> 11 ;
12 [label="mse = 89.8\nsamples = 15\nvalue = 779.5"] ;
11 -> 12 ;
13 [label="mse = 50.6\nsamples = 32\nvalue = 801.6"] ;
11 -> 13 ;
14 [label="Open <= 823.8\nmse = 77.1\nsamples = 26\nvalue = 823.3"] ;
10 -> 14 ;
15 [label="mse = 14.0\nsamples = 12\nvalue = 816.4"] ;
14 -> 15 ;
16 [label="mse = 44.6\nsamples = 14\nvalue = 830.2"] ;
14 -> 16 ;
17 [label="Month <= 4.5\nmse = 2093.9\nsamples = 71\nvalue = 908.9"] ;
1 -> 17 ;
18 [label="Prev. Low <= 857.6\nmse = 150.9\nsamples = 31\nvalue = 856.5"] ;
17 -> 18 ;
19 [label="Open <= 848.4\nmse = 41.8\nsamples = 23\nvalue = 850.9"] ;
18 -> 19 ;
20 [label="mse = 22.7\nsamples = 12\nvalue = 845.1"] ;
19 -> 20 ;
21 [label="mse = 18.1\nsamples = 11\nvalue = 854.7"] ;
19 -> 21 ;
22 [label="Month <= 3.5\nmse = 75.9\nsamples = 8\nvalue = 874.4"] ;
18 -> 22 ;
23 [label="mse = 7.3\nsamples = 5\nvalue = 867.3"] ;
22 -> 23 ;
24 [label="mse = 24.3\nsamples = 3\nvalue = 883.0"] ;
22 -> 24 ;
25 [label="Prev. High <= 958.4\nmse = 197.6\nsamples = 40\nvalue = 945.5"] ;
17 -> 25 ;
26 [label="Open <= 935.5\nmse = 84.9\nsamples = 28\nvalue = 938.5"] ;
25 -> 26 ;
27 [label="mse = 38.8\nsamples = 7\nvalue = 927.1"] ;
26 -> 27 ;
28 [label="mse = 46.7\nsamples = 21\nvalue = 942.0"] ;
26 -> 28 ;
29 [label="Open <= 963.1\nmse = 66.3\nsamples = 12\nvalue = 962.5"] ;
25 -> 29 ;
30 [label="mse = 39.5\nsamples = 8\nvalue = 957.7"] ;
29 -> 30 ;
31 [label="mse = 5.1\nsamples = 4\nvalue = 970.8"] ;
29 -> 31 ;
32 [label="Open <= 1149.5\nmse = 7817.7\nsamples = 297\nvalue = 1139.2"] ;
0 -> 32 [labeldistance=2.5, labelangle=-45, headlabel="False"] ;
33 [label="Open <= 1067.6\nmse = 2454.0\nsamples = 164\nvalue = 1073.7"] ;
32 -> 33 ;
34 [label="Open <= 1007.2\nmse = 762.5\nsamples = 70\nvalue = 1024.8"] ;
33 -> 34 ;
35 [label="Prev. Low <= 970.2\nmse = 101.5\nsamples = 20\nvalue = 987.9"] ;
34 -> 35 ;
36 [label="mse = 35.5\nsamples = 4\nvalue = 977.9"] ;
35 -> 36 ;
37 [label="mse = 87.5\nsamples = 16\nvalue = 990.3"] ;
35 -> 37 ;
38 [label="Open <= 1035.2\nmse = 287.4\nsamples = 50\nvalue = 1039.1"] ;
34 -> 38 ;
39 [label="mse = 155.1\nsamples = 17\nvalue = 1024.3"] ;
38 -> 39 ;
40 [label="mse = 167.3\nsamples = 33\nvalue = 1047.5"] ;
38 -> 40 ;
41 [label="Open <= 1109.6\nmse = 689.2\nsamples = 94\nvalue = 1109.2"] ;
33 -> 41 ;
42 [label="Prev. Close <= 1091.0\nmse = 239.3\nsamples = 45\nvalue = 1085.0"] ;
41 -> 42 ;
43 [label="mse = 129.7\nsamples = 27\nvalue = 1077.8"] ;
42 -> 43 ;
44 [label="mse = 213.6\nsamples = 18\nvalue = 1095.4"] ;
42 -> 44 ;
45 [label="Prev. Low <= 1117.5\nmse = 250.4\nsamples = 49\nvalue = 1127.5"] ;
41 -> 45 ;
46 [label="mse = 129.3\nsamples = 28\nvalue = 1120.8"] ;
45 -> 46 ;
47 [label="mse = 266.0\nsamples = 21\nvalue = 1137.1"] ;
45 -> 47 ;
48 [label="Open <= 1225.4\nmse = 2649.3\nsamples = 133\nvalue = 1219.7"] ;
32 -> 48 ;
49 [label="Prev. Low <= 1188.7\nmse = 555.3\nsamples = 78\nvalue = 1186.6"] ;
48 -> 49 ;
50 [label="Prev. Close <= 1169.3\nmse = 246.1\nsamples = 51\nvalue = 1175.0"] ;
49 -> 50 ;
51 [label="mse = 163.5\nsamples = 19\nvalue = 1161.4"] ;
50 -> 51 ;
52 [label="mse = 131.3\nsamples = 32\nvalue = 1182.6"] ;
50 -> 52 ;
53 [label="Open <= 1210.2\nmse = 221.7\nsamples = 27\nvalue = 1213.9"] ;
49 -> 53 ;
54 [label="mse = 101.3\nsamples = 14\nvalue = 1201.4"] ;
53 -> 54 ;
55 [label="mse = 101.6\nsamples = 13\nvalue = 1223.5"] ;
53 -> 55 ;
56 [label="Prev. Low <= 1274.7\nmse = 1521.1\nsamples = 55\nvalue = 1271.5"] ;
48 -> 56 ;
57 [label="Open <= 1243.5\nmse = 316.7\nsamples = 39\nvalue = 1251.7"] ;
56 -> 57 ;
58 [label="mse = 45.1\nsamples = 15\nvalue = 1234.4"] ;
57 -> 58 ;
59 [label="mse = 222.1\nsamples = 24\nvalue = 1260.6"] ;
57 -> 59 ;
60 [label="Open <= 1332.5\nmse = 722.5\nsamples = 16\nvalue = 1327.1"] ;
56 -> 60 ;
61 [label="mse = 101.0\nsamples = 8\nvalue = 1302.0"] ;
60 -> 61 ;
62 [label="mse = 86.3\nsamples = 8\nvalue = 1352.2"] ;
60 -> 62 ;
}