digraph Tree {
node [shape=box, style="rounded", color="black", fontname=helvetica] ;
edge [fontname=helvetica] ;
0 [label="Prev. Close <= 975.6\nmse = 31573.1\nsamples = 507\nvalue = 1010.3"] ;
1 [label="Prev. Low <= 852.0\nmse = 6830.1\nsamples = 206\nvalue = 819.9"] ;
0 -> 1 [labeldistance=2.5, labelangle=45, headlabel="True"] ;
2 [label="Open <= 769.4\nmse = 1931.3\nsamples = 147\nvalue = 776.3"] ;
1 -> 2 ;
3 [label="Prev. Close <= 747.0\nmse = 478.9\nsamples = 66\nvalue = 731.9"] ;
2 -> 3 ;
4 [label="Open <= 715.1\nmse = 224.3\nsamples = 49\nvalue = 721.4"] ;
3 -> 4 ;
5 [label="mse = 142.9\nsamples = 18\nvalue = 706.5"] ;
4 -> 5 ;
6 [label="mse = 90.5\nsamples = 31\nvalue = 729.1"] ;
4 -> 6 ;
7 [label="Open <= 748.8\nmse = 54.7\nsamples = 17\nvalue = 760.4"] ;
3 -> 7 ;
8 [label="mse = 9.3\nsamples = 3\nvalue = 744.6"] ;
7 -> 8 ;
9 [label="mse = 25.1\nsamples = 14\nvalue = 762.4"] ;
7 -> 9 ;
10 [label="Open <= 814.2\nmse = 472.3\nsamples = 81\nvalue = 809.1"] ;
2 -> 10 ;
11 [label="Prev. Low <= 792.5\nmse = 193.0\nsamples = 48\nvalue = 795.7"] ;
10 -> 11 ;
12 [label="mse = 111.2\nsamples = 22\nvalue = 785.3"] ;
11 -> 12 ;
13 [label="mse = 28.7\nsamples = 26\nvalue = 807.3"] ;
11 -> 13 ;
14 [label="Open <= 839.9\nmse = 199.3\nsamples = 33\nvalue = 829.8"] ;
10 -> 14 ;
15 [label="mse = 56.1\nsamples = 22\nvalue = 821.9"] ;
14 -> 15 ;
16 [label="mse = 7.0\nsamples = 11\nvalue = 849.7"] ;
14 -> 16 ;
17 [label="Prev. High <= 893.2\nmse = 807.8\nsamples = 59\nvalue = 939.1"] ;
1 -> 17 ;
18 [label="Day <= 20.0\nmse = 144.5\nsamples = 8\nvalue = 874.0"] ;
17 -> 18 ;
19 [label="Prev. High <= 869.9\nmse = 18.6\nsamples = 5\nvalue = 864.1"] ;
18 -> 19 ;
20 [label="mse = 5.8\nsamples = 4\nvalue = 862.4"] ;
19 -> 20 ;
21 [label="mse = -0.0\nsamples = 1\nvalue = 872.4"] ;
19 -> 21 ;
22 [label="Prev. Volume <= 1237451.0\nmse = 33.8\nsamples = 3\nvalue = 886.0"] ;
18 -> 22 ;
23 [label="mse = 0.0\nsamples = 1\nvalue = 878.9"] ;
22 -> 23 ;
24 [label="mse = 1.2\nsamples = 2\nvalue = 890.7"] ;
22 -> 24 ;
25 [label="Open <= 953.8\nmse = 193.3\nsamples = 51\nvalue = 948.6"] ;
17 -> 25 ;
26 [label="Open <= 935.3\nmse = 79.6\nsamples = 32\nvalue = 941.8"] ;
25 -> 26 ;
27 [label="mse = 47.2\nsamples = 9\nvalue = 933.1"] ;
26 -> 27 ;
28 [label="mse = 48.7\nsamples = 23\nvalue = 945.4"] ;
26 -> 28 ;
29 [label="Open <= 969.4\nmse = 126.8\nsamples = 19\nvalue = 963.1"] ;
25 -> 29 ;
30 [label="mse = 65.5\nsamples = 11\nvalue = 956.4"] ;
29 -> 30 ;
31 [label="mse = 31.1\nsamples = 8\nvalue = 974.2"] ;
29 -> 31 ;
32 [label="Open <= 1155.5\nmse = 7917.8\nsamples = 301\nvalue = 1136.8"] ;
0 -> 32 [labeldistance=2.5, labelangle=-45, headlabel="False"] ;
33 [label="Open <= 1076.2\nmse = 2328.0\nsamples = 179\nvalue = 1078.4"] ;
32 -> 33 ;
34 [label="Open <= 1016.2\nmse = 837.7\nsamples = 79\nvalue = 1034.1"] ;
33 -> 34 ;
35 [label="Month <= 10.5\nmse = 389.6\nsamples = 21\nvalue = 999.4"] ;
34 -> 35 ;
36 [label="mse = 157.8\nsamples = 19\nvalue = 993.9"] ;
35 -> 36 ;
37 [label="mse = 56.8\nsamples = 2\nvalue = 1043.5"] ;
35 -> 37 ;
38 [label="Prev. Close <= 1041.7\nmse = 365.6\nsamples = 58\nvalue = 1047.5"] ;
34 -> 38 ;
39 [label="mse = 107.2\nsamples = 19\nvalue = 1032.3"] ;
38 -> 39 ;
40 [label="mse = 311.7\nsamples = 39\nvalue = 1055.8"] ;
38 -> 40 ;
41 [label="Open <= 1118.2\nmse = 778.4\nsamples = 100\nvalue = 1112.8"] ;
33 -> 41 ;
42 [label="Open <= 1090.7\nmse = 335.3\nsamples = 55\nvalue = 1092.6"] ;
41 -> 42 ;
43 [label="mse = 116.0\nsamples = 28\nvalue = 1082.7"] ;
42 -> 43 ;
44 [label="mse = 359.0\nsamples = 27\nvalue = 1102.3"] ;
42 -> 44 ;
45 [label="Prev. Close <= 1147.7\nmse = 225.9\nsamples = 45\nvalue = 1137.2"] ;
41 -> 45 ;
46 [label="mse = 232.9\nsamples = 33\nvalue = 1132.2"] ;
45 -> 46 ;
47 [label="mse = 24.0\nsamples = 12\nvalue = 1148.6"] ;
45 -> 47 ;
48 [label="Open <= 1254.8\nmse = 2918.9\nsamples = 122\nvalue = 1228.5"] ;
32 -> 48 ;
49 [label="Open <= 1206.3\nmse = 593.6\nsamples = 91\nvalue = 1201.8"] ;
48 -> 49 ;
50 [label="Open <= 1186.1\nmse = 226.6\nsamples = 53\nvalue = 1185.1"] ;
49 -> 50 ;
51 [label="mse = 127.3\nsamples = 29\nvalue = 1174.9"] ;
50 -> 51 ;
52 [label="mse = 102.7\nsamples = 24\nvalue = 1196.0"] ;
50 -> 52 ;
53 [label="Open <= 1229.4\nmse = 164.7\nsamples = 38\nvalue = 1225.3"] ;
49 -> 53 ;
54 [label="mse = 74.5\nsamples = 22\nvalue = 1217.1"] ;
53 -> 54 ;
55 [label="mse = 69.5\nsamples = 16\nvalue = 1236.5"] ;
53 -> 55 ;
56 [label="Open <= 1305.0\nmse = 1109.9\nsamples = 31\nvalue = 1310.9"] ;
48 -> 56 ;
57 [label="Prev. Close <= 1273.3\nmse = 391.7\nsamples = 17\nvalue = 1283.5"] ;
56 -> 57 ;
58 [label="mse = 124.1\nsamples = 9\nvalue = 1263.8"] ;
57 -> 58 ;
59 [label="mse = 67.3\nsamples = 8\nvalue = 1298.7"] ;
57 -> 59 ;
60 [label="Open <= 1332.5\nmse = 327.0\nsamples = 14\nvalue = 1338.3"] ;
56 -> 60 ;
61 [label="mse = 85.7\nsamples = 6\nvalue = 1319.8"] ;
60 -> 61 ;
62 [label="mse = 45.9\nsamples = 8\nvalue = 1352.5"] ;
60 -> 62 ;
}