digraph Tree {
node [shape=box, style="rounded", color="black", fontname=helvetica] ;
edge [fontname=helvetica] ;
0 [label="Low <= 76.9\nmse = 1349.3\nsamples = 4427\nvalue = 31.4"] ;
1 [label="High <= 19.2\nmse = 309.6\nsamples = 4056\nvalue = 22.2"] ;
0 -> 1 [labeldistance=2.5, labelangle=45, headlabel="True"] ;
2 [label="Low <= 7.9\nmse = 22.7\nsamples = 1567\nvalue = 3.8"] ;
1 -> 2 ;
3 [label="Adj Close <= 2.1\nmse = 3.9\nsamples = 1356\nvalue = 2.1"] ;
2 -> 3 ;
4 [label="Adj Close <= 1.0\nmse = 1.0\nsamples = 1075\nvalue = 1.3"] ;
3 -> 4 ;
5 [label="Adj Close <= 0.5\nmse = 0.1\nsamples = 682\nvalue = 0.5"] ;
4 -> 5 ;
6 [label="Adj Close <= 0.2\nmse = 0.0\nsamples = 519\nvalue = 0.3"] ;
5 -> 6 ;
7 [label="Open <= 0.2\nmse = 0.0\nsamples = 132\nvalue = 0.1"] ;
6 -> 7 ;
8 [label="Low <= 0.1\nmse = 0.0\nsamples = 112\nvalue = 0.1"] ;
7 -> 8 ;
9 [label="Adj Close <= 0.1\nmse = 0.0\nsamples = 86\nvalue = 0.1"] ;
8 -> 9 ;
10 [label="Adj Close <= 0.1\nmse = 0.0\nsamples = 51\nvalue = 0.1"] ;
9 -> 10 ;
11 [label="Adj Close <= 0.1\nmse = 0.0\nsamples = 26\nvalue = 0.1"] ;
10 -> 11 ;
12 [label="Adj Close <= 0.1\nmse = 0.0\nsamples = 11\nvalue = 0.1"] ;
11 -> 12 ;
13 [label="Open <= 0.1\nmse = 0.0\nsamples = 5\nvalue = 0.1"] ;
12 -> 13 ;
14 [label="mse = 0.0\nsamples = 1\nvalue = 0.1"] ;
13 -> 14 ;
15 [label="High <= 0.1\nmse = 0.0\nsamples = 4\nvalue = 0.1"] ;
13 -> 15 ;
16 [label="mse = 0.0\nsamples = 2\nvalue = 0.1"] ;
15 -> 16 ;
17 [label="mse = 0.0\nsamples = 2\nvalue = 0.1"] ;
15 -> 17 ;
18 [label="Adj Close <= 0.1\nmse = 0.0\nsamples = 6\nvalue = 0.1"] ;
12 -> 18 ;
19 [label="mse = 0.0\nsamples = 2\nvalue = 0.1"] ;
18 -> 19 ;
20 [label="mse = 0.0\nsamples = 4\nvalue = 0.1"] ;
18 -> 20 ;
21 [label="Adj Close <= 0.1\nmse = 0.0\nsamples = 15\nvalue = 0.1"] ;
11 -> 21 ;
22 [label="Adj Close <= 0.1\nmse = 0.0\nsamples = 6\nvalue = 0.1"] ;
21 -> 22 ;
23 [label="mse = 0.0\nsamples = 4\nvalue = 0.1"] ;
22 -> 23 ;
24 [label="mse = 0.0\nsamples = 2\nvalue = 0.1"] ;
22 -> 24 ;
25 [label="Adj Close <= 0.1\nmse = 0.0\nsamples = 9\nvalue = 0.1"] ;
21 -> 25 ;
26 [label="mse = 0.0\nsamples = 5\nvalue = 0.1"] ;
25 -> 26 ;
27 [label="mse = 0.0\nsamples = 4\nvalue = 0.1"] ;
25 -> 27 ;
28 [label="Adj Close <= 0.1\nmse = 0.0\nsamples = 25\nvalue = 0.1"] ;
10 -> 28 ;
29 [label="Adj Close <= 0.1\nmse = 0.0\nsamples = 16\nvalue = 0.1"] ;
28 -> 29 ;
30 [label="mse = 0.0\nsamples = 6\nvalue = 0.1"] ;
29 -> 30 ;
31 [label="Adj Close <= 0.1\nmse = 0.0\nsamples = 10\nvalue = 0.1"] ;
29 -> 31 ;
32 [label="mse = 0.0\nsamples = 6\nvalue = 0.1"] ;
31 -> 32 ;
33 [label="mse = 0.0\nsamples = 4\nvalue = 0.1"] ;
31 -> 33 ;
34 [label="Adj Close <= 0.1\nmse = 0.0\nsamples = 9\nvalue = 0.1"] ;
28 -> 34 ;
35 [label="Adj Close <= 0.1\nmse = 0.0\nsamples = 5\nvalue = 0.1"] ;
34 -> 35 ;
36 [label="mse = 0.0\nsamples = 3\nvalue = 0.1"] ;
35 -> 36 ;
37 [label="mse = 0.0\nsamples = 2\nvalue = 0.1"] ;
35 -> 37 ;
38 [label="High <= 0.1\nmse = 0.0\nsamples = 4\nvalue = 0.1"] ;
34 -> 38 ;
39 [label="mse = 0.0\nsamples = 2\nvalue = 0.1"] ;
38 -> 39 ;
40 [label="mse = 0.0\nsamples = 2\nvalue = 0.1"] ;
38 -> 40 ;
41 [label="Adj Close <= 0.1\nmse = 0.0\nsamples = 35\nvalue = 0.1"] ;
9 -> 41 ;
42 [label="Adj Close <= 0.1\nmse = 0.0\nsamples = 22\nvalue = 0.1"] ;
41 -> 42 ;
43 [label="Adj Close <= 0.1\nmse = 0.0\nsamples = 18\nvalue = 0.1"] ;
42 -> 43 ;
44 [label="Adj Close <= 0.1\nmse = 0.0\nsamples = 10\nvalue = 0.1"] ;
43 -> 44 ;
45 [label="Open <= 0.1\nmse = 0.0\nsamples = 3\nvalue = 0.1"] ;
44 -> 45 ;
46 [label="mse = 0.0\nsamples = 1\nvalue = 0.1"] ;
45 -> 46 ;
47 [label="mse = 0.0\nsamples = 2\nvalue = 0.1"] ;
45 -> 47 ;
48 [label="mse = 0.0\nsamples = 7\nvalue = 0.1"] ;
44 -> 48 ;
49 [label="Adj Close <= 0.1\nmse = 0.0\nsamples = 8\nvalue = 0.1"] ;
43 -> 49 ;
50 [label="mse = 0.0\nsamples = 5\nvalue = 0.1"] ;
49 -> 50 ;
51 [label="mse = 0.0\nsamples = 3\nvalue = 0.1"] ;
49 -> 51 ;
52 [label="mse = 0.0\nsamples = 4\nvalue = 0.1"] ;
42 -> 52 ;
53 [label="Low <= 0.1\nmse = 0.0\nsamples = 13\nvalue = 0.1"] ;
41 -> 53 ;
54 [label="Adj Close <= 0.1\nmse = 0.0\nsamples = 9\nvalue = 0.1"] ;
53 -> 54 ;
55 [label="Adj Close <= 0.1\nmse = 0.0\nsamples = 6\nvalue = 0.1"] ;
54 -> 55 ;
56 [label="Day <= 28.5\nmse = 0.0\nsamples = 4\nvalue = 0.1"] ;
55 -> 56 ;
57 [label="mse = 0.0\nsamples = 3\nvalue = 0.1"] ;
56 -> 57 ;
58 [label="mse = 0.0\nsamples = 1\nvalue = 0.1"] ;
56 -> 58 ;
59 [label="Month <= 8.0\nmse = 0.0\nsamples = 2\nvalue = 0.1"] ;
55 -> 59 ;
60 [label="mse = 0.0\nsamples = 1\nvalue = 0.1"] ;
59 -> 60 ;
61 [label="mse = 0.0\nsamples = 1\nvalue = 0.1"] ;
59 -> 61 ;
62 [label="mse = 0.0\nsamples = 3\nvalue = 0.1"] ;
54 -> 62 ;
63 [label="Open <= 0.1\nmse = 0.0\nsamples = 4\nvalue = 0.1"] ;
53 -> 63 ;
64 [label="High <= 0.1\nmse = 0.0\nsamples = 2\nvalue = 0.1"] ;
63 -> 64 ;
65 [label="mse = 0.0\nsamples = 1\nvalue = 0.1"] ;
64 -> 65 ;
66 [label="mse = 0.0\nsamples = 1\nvalue = 0.1"] ;
64 -> 66 ;
67 [label="Day <= 22.5\nmse = 0.0\nsamples = 2\nvalue = 0.1"] ;
63 -> 67 ;
68 [label="mse = 0.0\nsamples = 1\nvalue = 0.1"] ;
67 -> 68 ;
69 [label="mse = 0.0\nsamples = 1\nvalue = 0.1"] ;
67 -> 69 ;
70 [label="Open <= 0.2\nmse = 0.0\nsamples = 26\nvalue = 0.2"] ;
8 -> 70 ;
71 [label="Low <= 0.1\nmse = 0.0\nsamples = 11\nvalue = 0.1"] ;
70 -> 71 ;
72 [label="Low <= 0.1\nmse = 0.0\nsamples = 2\nvalue = 0.1"] ;
71 -> 72 ;
73 [label="mse = 0.0\nsamples = 1\nvalue = 0.1"] ;
72 -> 73 ;
74 [label="mse = 0.0\nsamples = 1\nvalue = 0.1"] ;
72 -> 74 ;
75 [label="Adj Close <= 0.1\nmse = 0.0\nsamples = 9\nvalue = 0.1"] ;
71 -> 75 ;
76 [label="Day <= 7.5\nmse = 0.0\nsamples = 7\nvalue = 0.1"] ;
75 -> 76 ;
77 [label="mse = 0.0\nsamples = 1\nvalue = 0.2"] ;
76 -> 77 ;
78 [label="Adj Close <= 0.1\nmse = 0.0\nsamples = 6\nvalue = 0.1"] ;
76 -> 78 ;
79 [label="mse = 0.0\nsamples = 2\nvalue = 0.1"] ;
78 -> 79 ;
80 [label="Adj Close <= 0.1\nmse = 0.0\nsamples = 4\nvalue = 0.1"] ;
78 -> 80 ;
81 [label="mse = 0.0\nsamples = 2\nvalue = 0.1"] ;
80 -> 81 ;
82 [label="mse = 0.0\nsamples = 2\nvalue = 0.1"] ;
80 -> 82 ;
83 [label="Volume <= 85377600.0\nmse = 0.0\nsamples = 2\nvalue = 0.2"] ;
75 -> 83 ;
84 [label="mse = 0.0\nsamples = 1\nvalue = 0.2"] ;
83 -> 84 ;
85 [label="mse = 0.0\nsamples = 1\nvalue = 0.2"] ;
83 -> 85 ;
86 [label="Adj Close <= 0.1\nmse = 0.0\nsamples = 15\nvalue = 0.2"] ;
70 -> 86 ;
87 [label="Open <= 0.2\nmse = 0.0\nsamples = 2\nvalue = 0.2"] ;
86 -> 87 ;
88 [label="mse = 0.0\nsamples = 1\nvalue = 0.2"] ;
87 -> 88 ;
89 [label="mse = 0.0\nsamples = 1\nvalue = 0.2"] ;
87 -> 89 ;
90 [label="Adj Close <= 0.1\nmse = 0.0\nsamples = 13\nvalue = 0.2"] ;
86 -> 90 ;
91 [label="Adj Close <= 0.1\nmse = 0.0\nsamples = 9\nvalue = 0.2"] ;
90 -> 91 ;
92 [label="Adj Close <= 0.1\nmse = 0.0\nsamples = 5\nvalue = 0.2"] ;
91 -> 92 ;
93 [label="mse = 0.0\nsamples = 1\nvalue = 0.2"] ;
92 -> 93 ;
94 [label="Adj Close <= 0.1\nmse = 0.0\nsamples = 4\nvalue = 0.2"] ;
92 -> 94 ;
95 [label="mse = 0.0\nsamples = 2\nvalue = 0.2"] ;
94 -> 95 ;
96 [label="mse = 0.0\nsamples = 2\nvalue = 0.2"] ;
94 -> 96 ;
97 [label="Low <= 0.2\nmse = 0.0\nsamples = 4\nvalue = 0.2"] ;
91 -> 97 ;
98 [label="mse = 0.0\nsamples = 3\nvalue = 0.2"] ;
97 -> 98 ;
99 [label="mse = 0.0\nsamples = 1\nvalue = 0.2"] ;
97 -> 99 ;
100 [label="Open <= 0.2\nmse = 0.0\nsamples = 4\nvalue = 0.2"] ;
90 -> 100 ;
101 [label="mse = 0.0\nsamples = 1\nvalue = 0.2"] ;
100 -> 101 ;
102 [label="Open <= 0.2\nmse = 0.0\nsamples = 3\nvalue = 0.2"] ;
100 -> 102 ;
103 [label="mse = 0.0\nsamples = 2\nvalue = 0.2"] ;
102 -> 103 ;
104 [label="mse = 0.0\nsamples = 1\nvalue = 0.2"] ;
102 -> 104 ;
105 [label="Adj Close <= 0.1\nmse = 0.0\nsamples = 20\nvalue = 0.2"] ;
7 -> 105 ;
106 [label="Volume <= 63216000.0\nmse = 0.0\nsamples = 4\nvalue = 0.2"] ;
105 -> 106 ;
107 [label="mse = 0.0\nsamples = 1\nvalue = 0.2"] ;
106 -> 107 ;
108 [label="High <= 0.2\nmse = 0.0\nsamples = 3\nvalue = 0.2"] ;
106 -> 108 ;
109 [label="mse = 0.0\nsamples = 2\nvalue = 0.2"] ;
108 -> 109 ;
110 [label="mse = 0.0\nsamples = 1\nvalue = 0.2"] ;
108 -> 110 ;
111 [label="Adj Close <= 0.2\nmse = 0.0\nsamples = 16\nvalue = 0.3"] ;
105 -> 111 ;
112 [label="Adj Close <= 0.2\nmse = 0.0\nsamples = 4\nvalue = 0.2"] ;
111 -> 112 ;
113 [label="Low <= 0.2\nmse = 0.0\nsamples = 2\nvalue = 0.2"] ;
112 -> 113 ;
114 [label="mse = 0.0\nsamples = 1\nvalue = 0.2"] ;
113 -> 114 ;
115 [label="mse = 0.0\nsamples = 1\nvalue = 0.2"] ;
113 -> 115 ;
116 [label="mse = 0.0\nsamples = 2\nvalue = 0.2"] ;
112 -> 116 ;
117 [label="Adj Close <= 0.2\nmse = 0.0\nsamples = 12\nvalue = 0.3"] ;
111 -> 117 ;
118 [label="High <= 0.3\nmse = 0.0\nsamples = 8\nvalue = 0.3"] ;
117 -> 118 ;
119 [label="Adj Close <= 0.2\nmse = 0.0\nsamples = 6\nvalue = 0.3"] ;
118 -> 119 ;
120 [label="Day <= 4.5\nmse = 0.0\nsamples = 4\nvalue = 0.2"] ;
119 -> 120 ;
121 [label="Volume <= 45532800.0\nmse = 0.0\nsamples = 2\nvalue = 0.2"] ;
120 -> 121 ;
122 [label="mse = 0.0\nsamples = 1\nvalue = 0.2"] ;
121 -> 122 ;
123 [label="mse = 0.0\nsamples = 1\nvalue = 0.2"] ;
121 -> 123 ;
124 [label="mse = 0.0\nsamples = 2\nvalue = 0.2"] ;
120 -> 124 ;
125 [label="mse = 0.0\nsamples = 2\nvalue = 0.3"] ;
119 -> 125 ;
126 [label="mse = 0.0\nsamples = 2\nvalue = 0.3"] ;
118 -> 126 ;
127 [label="Month <= 6.0\nmse = 0.0\nsamples = 4\nvalue = 0.3"] ;
117 -> 127 ;
128 [label="Adj Close <= 0.2\nmse = 0.0\nsamples = 3\nvalue = 0.3"] ;
127 -> 128 ;
129 [label="mse = 0.0\nsamples = 1\nvalue = 0.3"] ;
128 -> 129 ;
130 [label="Day <= 14.5\nmse = 0.0\nsamples = 2\nvalue = 0.3"] ;
128 -> 130 ;
131 [label="mse = 0.0\nsamples = 1\nvalue = 0.3"] ;
130 -> 131 ;
132 [label="mse = 0.0\nsamples = 1\nvalue = 0.3"] ;
130 -> 132 ;
133 [label="mse = 0.0\nsamples = 1\nvalue = 0.3"] ;
127 -> 133 ;
134 [label="High <= 0.5\nmse = 0.0\nsamples = 387\nvalue = 0.4"] ;
6 -> 134 ;
135 [label="Adj Close <= 0.2\nmse = 0.0\nsamples = 327\nvalue = 0.4"] ;
134 -> 135 ;
136 [label="Adj Close <= 0.2\nmse = 0.0\nsamples = 163\nvalue = 0.3"] ;
135 -> 136 ;
137 [label="High <= 0.3\nmse = 0.0\nsamples = 60\nvalue = 0.3"] ;
136 -> 137 ;
138 [label="High <= 0.3\nmse = 0.0\nsamples = 6\nvalue = 0.3"] ;
137 -> 138 ;
139 [label="mse = 0.0\nsamples = 1\nvalue = 0.3"] ;
138 -> 139 ;
140 [label="Low <= 0.3\nmse = 0.0\nsamples = 5\nvalue = 0.3"] ;
138 -> 140 ;
141 [label="Adj Close <= 0.2\nmse = 0.0\nsamples = 4\nvalue = 0.3"] ;
140 -> 141 ;
142 [label="Volume <= 127440000.0\nmse = 0.0\nsamples = 3\nvalue = 0.3"] ;
141 -> 142 ;
143 [label="mse = 0.0\nsamples = 1\nvalue = 0.3"] ;
142 -> 143 ;
144 [label="mse = 0.0\nsamples = 2\nvalue = 0.3"] ;
142 -> 144 ;
145 [label="mse = 0.0\nsamples = 1\nvalue = 0.3"] ;
141 -> 145 ;
146 [label="mse = 0.0\nsamples = 1\nvalue = 0.3"] ;
140 -> 146 ;
147 [label="Adj Close <= 0.2\nmse = 0.0\nsamples = 54\nvalue = 0.3"] ;
137 -> 147 ;
148 [label="Adj Close <= 0.2\nmse = 0.0\nsamples = 19\nvalue = 0.3"] ;
147 -> 148 ;
149 [label="High <= 0.3\nmse = 0.0\nsamples = 5\nvalue = 0.3"] ;
148 -> 149 ;
150 [label="Open <= 0.3\nmse = 0.0\nsamples = 2\nvalue = 0.3"] ;
149 -> 150 ;
151 [label="mse = 0.0\nsamples = 1\nvalue = 0.3"] ;
150 -> 151 ;
152 [label="mse = 0.0\nsamples = 1\nvalue = 0.3"] ;
150 -> 152 ;
153 [label="Open <= 0.3\nmse = 0.0\nsamples = 3\nvalue = 0.3"] ;
149 -> 153 ;
154 [label="Low <= 0.3\nmse = 0.0\nsamples = 2\nvalue = 0.3"] ;
153 -> 154 ;
155 [label="mse = 0.0\nsamples = 1\nvalue = 0.3"] ;
154 -> 155 ;
156 [label="mse = 0.0\nsamples = 1\nvalue = 0.3"] ;
154 -> 156 ;
157 [label="mse = 0.0\nsamples = 1\nvalue = 0.3"] ;
153 -> 157 ;
158 [label="Adj Close <= 0.2\nmse = 0.0\nsamples = 14\nvalue = 0.3"] ;
148 -> 158 ;
159 [label="Adj Close <= 0.2\nmse = 0.0\nsamples = 8\nvalue = 0.3"] ;
158 -> 159 ;
160 [label="mse = 0.0\nsamples = 3\nvalue = 0.3"] ;
159 -> 160 ;
161 [label="Adj Close <= 0.2\nmse = 0.0\nsamples = 5\nvalue = 0.3"] ;
159 -> 161 ;
162 [label="mse = 0.0\nsamples = 2\nvalue = 0.3"] ;
161 -> 162 ;
163 [label="Day <= 22.5\nmse = 0.0\nsamples = 3\nvalue = 0.3"] ;
161 -> 163 ;
164 [label="mse = 0.0\nsamples = 2\nvalue = 0.3"] ;
163 -> 164 ;
165 [label="mse = 0.0\nsamples = 1\nvalue = 0.3"] ;
163 -> 165 ;
166 [label="Adj Close <= 0.2\nmse = 0.0\nsamples = 6\nvalue = 0.3"] ;
158 -> 166 ;
167 [label="Open <= 0.3\nmse = 0.0\nsamples = 2\nvalue = 0.3"] ;
166 -> 167 ;
168 [label="mse = 0.0\nsamples = 1\nvalue = 0.3"] ;
167 -> 168 ;
169 [label="mse = 0.0\nsamples = 1\nvalue = 0.3"] ;
167 -> 169 ;
170 [label="mse = 0.0\nsamples = 4\nvalue = 0.3"] ;
166 -> 170 ;
171 [label="Adj Close <= 0.2\nmse = 0.0\nsamples = 35\nvalue = 0.3"] ;
147 -> 171 ;
172 [label="Adj Close <= 0.2\nmse = 0.0\nsamples = 15\nvalue = 0.3"] ;
171 -> 172 ;
173 [label="Adj Close <= 0.2\nmse = 0.0\nsamples = 8\nvalue = 0.3"] ;
172 -> 173 ;
174 [label="Month <= 11.5\nmse = 0.0\nsamples = 3\nvalue = 0.3"] ;
173 -> 174 ;
175 [label="mse = 0.0\nsamples = 2\nvalue = 0.3"] ;
174 -> 175 ;
176 [label="mse = 0.0\nsamples = 1\nvalue = 0.3"] ;
174 -> 176 ;
177 [label="mse = 0.0\nsamples = 5\nvalue = 0.3"] ;
173 -> 177 ;
178 [label="Adj Close <= 0.2\nmse = 0.0\nsamples = 7\nvalue = 0.3"] ;
172 -> 178 ;
179 [label="Month <= 7.0\nmse = 0.0\nsamples = 4\nvalue = 0.3"] ;
178 -> 179 ;
180 [label="mse = 0.0\nsamples = 2\nvalue = 0.3"] ;
179 -> 180 ;
181 [label="mse = 0.0\nsamples = 2\nvalue = 0.3"] ;
179 -> 181 ;
182 [label="mse = 0.0\nsamples = 3\nvalue = 0.3"] ;
178 -> 182 ;
183 [label="Adj Close <= 0.2\nmse = 0.0\nsamples = 20\nvalue = 0.3"] ;
171 -> 183 ;
184 [label="Adj Close <= 0.2\nmse = 0.0\nsamples = 10\nvalue = 0.3"] ;
183 -> 184 ;
185 [label="Adj Close <= 0.2\nmse = 0.0\nsamples = 7\nvalue = 0.3"] ;
184 -> 185 ;
186 [label="High <= 0.4\nmse = 0.0\nsamples = 4\nvalue = 0.3"] ;
185 -> 186 ;
187 [label="mse = 0.0\nsamples = 3\nvalue = 0.3"] ;
186 -> 187 ;
188 [label="mse = 0.0\nsamples = 1\nvalue = 0.3"] ;
186 -> 188 ;
189 [label="mse = 0.0\nsamples = 3\nvalue = 0.3"] ;
185 -> 189 ;
190 [label="Open <= 0.3\nmse = 0.0\nsamples = 3\nvalue = 0.3"] ;
184 -> 190 ;
191 [label="mse = 0.0\nsamples = 1\nvalue = 0.3"] ;
190 -> 191 ;
192 [label="mse = 0.0\nsamples = 2\nvalue = 0.3"] ;
190 -> 192 ;
193 [label="Adj Close <= 0.2\nmse = 0.0\nsamples = 10\nvalue = 0.3"] ;
183 -> 193 ;
194 [label="Adj Close <= 0.2\nmse = 0.0\nsamples = 7\nvalue = 0.3"] ;
193 -> 194 ;
195 [label="mse = 0.0\nsamples = 2\nvalue = 0.3"] ;
194 -> 195 ;
196 [label="mse = 0.0\nsamples = 5\nvalue = 0.3"] ;
194 -> 196 ;
197 [label="Adj Close <= 0.2\nmse = 0.0\nsamples = 3\nvalue = 0.3"] ;
193 -> 197 ;
198 [label="mse = 0.0\nsamples = 1\nvalue = 0.3"] ;
197 -> 198 ;
199 [label="mse = 0.0\nsamples = 2\nvalue = 0.3"] ;
197 -> 199 ;
200 [label="Adj Close <= 0.2\nmse = 0.0\nsamples = 103\nvalue = 0.4"] ;
136 -> 200 ;
201 [label="Adj Close <= 0.2\nmse = 0.0\nsamples = 48\nvalue = 0.4"] ;
200 -> 201 ;
202 [label="Adj Close <= 0.2\nmse = 0.0\nsamples = 24\nvalue = 0.3"] ;
201 -> 202 ;
203 [label="Adj Close <= 0.2\nmse = 0.0\nsamples = 15\nvalue = 0.3"] ;
202 -> 203 ;
204 [label="Adj Close <= 0.2\nmse = 0.0\nsamples = 7\nvalue = 0.3"] ;
203 -> 204 ;
205 [label="mse = 0.0\nsamples = 3\nvalue = 0.3"] ;
204 -> 205 ;
206 [label="mse = 0.0\nsamples = 4\nvalue = 0.3"] ;
204 -> 206 ;
207 [label="Adj Close <= 0.2\nmse = 0.0\nsamples = 8\nvalue = 0.3"] ;
203 -> 207 ;
208 [label="mse = 0.0\nsamples = 5\nvalue = 0.3"] ;
207 -> 208 ;
209 [label="mse = 0.0\nsamples = 3\nvalue = 0.3"] ;
207 -> 209 ;
210 [label="Adj Close <= 0.2\nmse = 0.0\nsamples = 9\nvalue = 0.3"] ;
202 -> 210 ;
211 [label="mse = 0.0\nsamples = 4\nvalue = 0.3"] ;
210 -> 211 ;
212 [label="Adj Close <= 0.2\nmse = 0.0\nsamples = 5\nvalue = 0.3"] ;
210 -> 212 ;
213 [label="mse = 0.0\nsamples = 3\nvalue = 0.3"] ;
212 -> 213 ;
214 [label="Day <= 15.5\nmse = 0.0\nsamples = 2\nvalue = 0.4"] ;
212 -> 214 ;
215 [label="mse = 0.0\nsamples = 1\nvalue = 0.4"] ;
214 -> 215 ;
216 [label="mse = 0.0\nsamples = 1\nvalue = 0.4"] ;
214 -> 216 ;
217 [label="Adj Close <= 0.2\nmse = 0.0\nsamples = 24\nvalue = 0.4"] ;
201 -> 217 ;
218 [label="Adj Close <= 0.2\nmse = 0.0\nsamples = 7\nvalue = 0.4"] ;
217 -> 218 ;
219 [label="mse = 0.0\nsamples = 3\nvalue = 0.4"] ;
218 -> 219 ;
220 [label="mse = 0.0\nsamples = 4\nvalue = 0.4"] ;
218 -> 220 ;
221 [label="Adj Close <= 0.2\nmse = 0.0\nsamples = 17\nvalue = 0.4"] ;
217 -> 221 ;
222 [label="Adj Close <= 0.2\nmse = 0.0\nsamples = 9\nvalue = 0.4"] ;
221 -> 222 ;
223 [label="mse = 0.0\nsamples = 2\nvalue = 0.4"] ;
222 -> 223 ;
224 [label="mse = 0.0\nsamples = 7\nvalue = 0.4"] ;
222 -> 224 ;
225 [label="Day <= 28.0\nmse = 0.0\nsamples = 8\nvalue = 0.4"] ;
221 -> 225 ;
226 [label="mse = 0.0\nsamples = 7\nvalue = 0.4"] ;
225 -> 226 ;
227 [label="mse = 0.0\nsamples = 1\nvalue = 0.4"] ;
225 -> 227 ;
228 [label="Adj Close <= 0.2\nmse = 0.0\nsamples = 55\nvalue = 0.4"] ;
200 -> 228 ;
229 [label="Adj Close <= 0.2\nmse = 0.0\nsamples = 26\nvalue = 0.4"] ;
228 -> 229 ;
230 [label="Adj Close <= 0.2\nmse = 0.0\nsamples = 14\nvalue = 0.4"] ;
229 -> 230 ;
231 [label="mse = 0.0\nsamples = 10\nvalue = 0.4"] ;
230 -> 231 ;
232 [label="Low <= 0.4\nmse = 0.0\nsamples = 4\nvalue = 0.4"] ;
230 -> 232 ;
233 [label="mse = 0.0\nsamples = 2\nvalue = 0.4"] ;
232 -> 233 ;
234 [label="mse = 0.0\nsamples = 2\nvalue = 0.4"] ;
232 -> 234 ;
235 [label="Adj Close <= 0.2\nmse = 0.0\nsamples = 12\nvalue = 0.4"] ;
229 -> 235 ;
236 [label="Day <= 21.0\nmse = 0.0\nsamples = 7\nvalue = 0.4"] ;
235 -> 236 ;
237 [label="mse = 0.0\nsamples = 5\nvalue = 0.4"] ;
236 -> 237 ;
238 [label="mse = 0.0\nsamples = 2\nvalue = 0.4"] ;
236 -> 238 ;
239 [label="Volume <= 54222400.0\nmse = 0.0\nsamples = 5\nvalue = 0.4"] ;
235 -> 239 ;
240 [label="mse = 0.0\nsamples = 2\nvalue = 0.4"] ;
239 -> 240 ;
241 [label="mse = 0.0\nsamples = 3\nvalue = 0.4"] ;
239 -> 241 ;
242 [label="Adj Close <= 0.2\nmse = 0.0\nsamples = 29\nvalue = 0.4"] ;
228 -> 242 ;
243 [label="Adj Close <= 0.2\nmse = 0.0\nsamples = 14\nvalue = 0.4"] ;
242 -> 243 ;
244 [label="mse = 0.0\nsamples = 6\nvalue = 0.4"] ;
243 -> 244 ;
245 [label="Adj Close <= 0.2\nmse = 0.0\nsamples = 8\nvalue = 0.4"] ;
243 -> 245 ;
246 [label="mse = 0.0\nsamples = 4\nvalue = 0.4"] ;
245 -> 246 ;
247 [label="Volume <= 47540800.0\nmse = 0.0\nsamples = 4\nvalue = 0.4"] ;
245 -> 247 ;
248 [label="mse = 0.0\nsamples = 3\nvalue = 0.4"] ;
247 -> 248 ;
249 [label="mse = 0.0\nsamples = 1\nvalue = 0.4"] ;
247 -> 249 ;
250 [label="Adj Close <= 0.2\nmse = 0.0\nsamples = 15\nvalue = 0.4"] ;
242 -> 250 ;
251 [label="High <= 0.4\nmse = 0.0\nsamples = 7\nvalue = 0.4"] ;
250 -> 251 ;
252 [label="mse = 0.0\nsamples = 6\nvalue = 0.4"] ;
251 -> 252 ;
253 [label="mse = 0.0\nsamples = 1\nvalue = 0.4"] ;
251 -> 253 ;
254 [label="Adj Close <= 0.2\nmse = 0.0\nsamples = 8\nvalue = 0.4"] ;
250 -> 254 ;
255 [label="mse = 0.0\nsamples = 6\nvalue = 0.4"] ;
254 -> 255 ;
256 [label="mse = 0.0\nsamples = 2\nvalue = 0.4"] ;
254 -> 256 ;
257 [label="Adj Close <= 0.3\nmse = 0.0\nsamples = 164\nvalue = 0.4"] ;
135 -> 257 ;
258 [label="Adj Close <= 0.3\nmse = 0.0\nsamples = 123\nvalue = 0.4"] ;
257 -> 258 ;
259 [label="Adj Close <= 0.2\nmse = 0.0\nsamples = 61\nvalue = 0.4"] ;
258 -> 259 ;
260 [label="Adj Close <= 0.2\nmse = 0.0\nsamples = 33\nvalue = 0.4"] ;
259 -> 260 ;
261 [label="Adj Close <= 0.2\nmse = 0.0\nsamples = 15\nvalue = 0.4"] ;
260 -> 261 ;
262 [label="Adj Close <= 0.2\nmse = 0.0\nsamples = 8\nvalue = 0.4"] ;
261 -> 262 ;
263 [label="mse = 0.0\nsamples = 2\nvalue = 0.4"] ;
262 -> 263 ;
264 [label="mse = 0.0\nsamples = 6\nvalue = 0.4"] ;
262 -> 264 ;
265 [label="Adj Close <= 0.2\nmse = 0.0\nsamples = 7\nvalue = 0.4"] ;
261 -> 265 ;
266 [label="mse = 0.0\nsamples = 2\nvalue = 0.4"] ;
265 -> 266 ;
267 [label="Adj Close <= 0.2\nmse = 0.0\nsamples = 5\nvalue = 0.4"] ;
265 -> 267 ;
268 [label="mse = 0.0\nsamples = 4\nvalue = 0.4"] ;
267 -> 268 ;
269 [label="mse = 0.0\nsamples = 1\nvalue = 0.4"] ;
267 -> 269 ;
270 [label="Adj Close <= 0.2\nmse = 0.0\nsamples = 18\nvalue = 0.4"] ;
260 -> 270 ;
271 [label="Adj Close <= 0.2\nmse = 0.0\nsamples = 9\nvalue = 0.4"] ;
270 -> 271 ;
272 [label="mse = 0.0\nsamples = 4\nvalue = 0.4"] ;
271 -> 272 ;
273 [label="Adj Close <= 0.2\nmse = 0.0\nsamples = 5\nvalue = 0.4"] ;
271 -> 273 ;
274 [label="mse = 0.0\nsamples = 3\nvalue = 0.4"] ;
273 -> 274 ;
275 [label="mse = 0.0\nsamples = 2\nvalue = 0.4"] ;
273 -> 275 ;
276 [label="mse = 0.0\nsamples = 9\nvalue = 0.4"] ;
270 -> 276 ;
277 [label="Adj Close <= 0.3\nmse = 0.0\nsamples = 28\nvalue = 0.4"] ;
259 -> 277 ;
278 [label="Adj Close <= 0.2\nmse = 0.0\nsamples = 17\nvalue = 0.4"] ;
277 -> 278 ;
279 [label="Adj Close <= 0.2\nmse = 0.0\nsamples = 8\nvalue = 0.4"] ;
278 -> 279 ;
280 [label="mse = 0.0\nsamples = 4\nvalue = 0.4"] ;
279 -> 280 ;
281 [label="Adj Close <= 0.2\nmse = 0.0\nsamples = 4\nvalue = 0.4"] ;
279 -> 281 ;
282 [label="mse = 0.0\nsamples = 2\nvalue = 0.4"] ;
281 -> 282 ;
283 [label="mse = 0.0\nsamples = 2\nvalue = 0.4"] ;
281 -> 283 ;
284 [label="Adj Close <= 0.3\nmse = 0.0\nsamples = 9\nvalue = 0.4"] ;
278 -> 284 ;
285 [label="mse = 0.0\nsamples = 6\nvalue = 0.4"] ;
284 -> 285 ;
286 [label="mse = 0.0\nsamples = 3\nvalue = 0.4"] ;
284 -> 286 ;
287 [label="Adj Close <= 0.3\nmse = 0.0\nsamples = 11\nvalue = 0.4"] ;
277 -> 287 ;
288 [label="Adj Close <= 0.3\nmse = 0.0\nsamples = 8\nvalue = 0.4"] ;
287 -> 288 ;
289 [label="Day <= 22.0\nmse = 0.0\nsamples = 4\nvalue = 0.4"] ;
288 -> 289 ;
290 [label="mse = 0.0\nsamples = 3\nvalue = 0.4"] ;
289 -> 290 ;
291 [label="mse = 0.0\nsamples = 1\nvalue = 0.4"] ;
289 -> 291 ;
292 [label="mse = 0.0\nsamples = 4\nvalue = 0.4"] ;
288 -> 292 ;
293 [label="Open <= 0.4\nmse = 0.0\nsamples = 3\nvalue = 0.4"] ;
287 -> 293 ;
294 [label="mse = 0.0\nsamples = 1\nvalue = 0.4"] ;
293 -> 294 ;
295 [label="mse = 0.0\nsamples = 2\nvalue = 0.4"] ;
293 -> 295 ;
296 [label="Adj Close <= 0.3\nmse = 0.0\nsamples = 62\nvalue = 0.4"] ;
258 -> 296 ;
297 [label="Adj Close <= 0.3\nmse = 0.0\nsamples = 30\nvalue = 0.4"] ;
296 -> 297 ;
298 [label="Adj Close <= 0.3\nmse = 0.0\nsamples = 15\nvalue = 0.4"] ;
297 -> 298 ;
299 [label="Volume <= 84102400.0\nmse = 0.0\nsamples = 8\nvalue = 0.4"] ;
298 -> 299 ;
300 [label="mse = 0.0\nsamples = 6\nvalue = 0.4"] ;
299 -> 300 ;
301 [label="mse = 0.0\nsamples = 2\nvalue = 0.4"] ;
299 -> 301 ;
302 [label="Adj Close <= 0.3\nmse = 0.0\nsamples = 7\nvalue = 0.4"] ;
298 -> 302 ;
303 [label="mse = 0.0\nsamples = 3\nvalue = 0.4"] ;
302 -> 303 ;
304 [label="mse = 0.0\nsamples = 4\nvalue = 0.4"] ;
302 -> 304 ;
305 [label="Adj Close <= 0.3\nmse = 0.0\nsamples = 15\nvalue = 0.4"] ;
297 -> 305 ;
306 [label="Adj Close <= 0.3\nmse = 0.0\nsamples = 10\nvalue = 0.4"] ;
305 -> 306 ;
307 [label="Adj Close <= 0.3\nmse = 0.0\nsamples = 5\nvalue = 0.4"] ;
306 -> 307 ;
308 [label="mse = 0.0\nsamples = 2\nvalue = 0.4"] ;
307 -> 308 ;
309 [label="mse = 0.0\nsamples = 3\nvalue = 0.4"] ;
307 -> 309 ;
310 [label="mse = 0.0\nsamples = 5\nvalue = 0.4"] ;
306 -> 310 ;
311 [label="Volume <= 56065600.0\nmse = 0.0\nsamples = 5\nvalue = 0.4"] ;
305 -> 311 ;
312 [label="mse = 0.0\nsamples = 4\nvalue = 0.4"] ;
311 -> 312 ;
313 [label="mse = 0.0\nsamples = 1\nvalue = 0.4"] ;
311 -> 313 ;
314 [label="Adj Close <= 0.3\nmse = 0.0\nsamples = 32\nvalue = 0.4"] ;
296 -> 314 ;
315 [label="Adj Close <= 0.3\nmse = 0.0\nsamples = 16\nvalue = 0.4"] ;
314 -> 315 ;
316 [label="Adj Close <= 0.3\nmse = 0.0\nsamples = 12\nvalue = 0.4"] ;
315 -> 316 ;
317 [label="Adj Close <= 0.3\nmse = 0.0\nsamples = 6\nvalue = 0.4"] ;
316 -> 317 ;
318 [label="mse = 0.0\nsamples = 4\nvalue = 0.4"] ;
317 -> 318 ;
319 [label="mse = 0.0\nsamples = 2\nvalue = 0.4"] ;
317 -> 319 ;
320 [label="mse = 0.0\nsamples = 6\nvalue = 0.4"] ;
316 -> 320 ;
321 [label="Adj Close <= 0.3\nmse = 0.0\nsamples = 4\nvalue = 0.4"] ;
315 -> 321 ;
322 [label="mse = 0.0\nsamples = 1\nvalue = 0.4"] ;
321 -> 322 ;
323 [label="mse = 0.0\nsamples = 3\nvalue = 0.4"] ;
321 -> 323 ;
324 [label="Adj Close <= 0.3\nmse = 0.0\nsamples = 16\nvalue = 0.4"] ;
314 -> 324 ;
325 [label="Adj Close <= 0.3\nmse = 0.0\nsamples = 11\nvalue = 0.4"] ;
324 -> 325 ;
326 [label="Adj Close <= 0.3\nmse = 0.0\nsamples = 6\nvalue = 0.4"] ;
325 -> 326 ;
327 [label="mse = 0.0\nsamples = 2\nvalue = 0.4"] ;
326 -> 327 ;
328 [label="mse = 0.0\nsamples = 4\nvalue = 0.4"] ;
326 -> 328 ;
329 [label="Adj Close <= 0.3\nmse = 0.0\nsamples = 5\nvalue = 0.4"] ;
325 -> 329 ;
330 [label="mse = 0.0\nsamples = 2\nvalue = 0.4"] ;
329 -> 330 ;
331 [label="Adj Close <= 0.3\nmse = 0.0\nsamples = 3\nvalue = 0.4"] ;
329 -> 331 ;
332 [label="mse = 0.0\nsamples = 2\nvalue = 0.4"] ;
331 -> 332 ;
333 [label="mse = 0.0\nsamples = 1\nvalue = 0.4"] ;
331 -> 333 ;
334 [label="Day <= 10.0\nmse = 0.0\nsamples = 5\nvalue = 0.4"] ;
324 -> 334 ;
335 [label="mse = 0.0\nsamples = 2\nvalue = 0.4"] ;
334 -> 335 ;
336 [label="Day <= 22.5\nmse = 0.0\nsamples = 3\nvalue = 0.4"] ;
334 -> 336 ;
337 [label="mse = 0.0\nsamples = 2\nvalue = 0.4"] ;
336 -> 337 ;
338 [label="mse = 0.0\nsamples = 1\nvalue = 0.4"] ;
336 -> 338 ;
339 [label="Adj Close <= 0.3\nmse = 0.0\nsamples = 41\nvalue = 0.4"] ;
257 -> 339 ;
340 [label="Adj Close <= 0.3\nmse = 0.0\nsamples = 26\nvalue = 0.4"] ;
339 -> 340 ;
341 [label="Adj Close <= 0.3\nmse = 0.0\nsamples = 14\nvalue = 0.4"] ;
340 -> 341 ;
342 [label="Adj Close <= 0.3\nmse = 0.0\nsamples = 7\nvalue = 0.4"] ;
341 -> 342 ;
343 [label="Adj Close <= 0.3\nmse = 0.0\nsamples = 5\nvalue = 0.4"] ;
342 -> 343 ;
344 [label="mse = 0.0\nsamples = 2\nvalue = 0.4"] ;
343 -> 344 ;
345 [label="Volume <= 77017600.0\nmse = 0.0\nsamples = 3\nvalue = 0.4"] ;
343 -> 345 ;
346 [label="mse = 0.0\nsamples = 1\nvalue = 0.4"] ;
345 -> 346 ;
347 [label="mse = 0.0\nsamples = 2\nvalue = 0.4"] ;
345 -> 347 ;
348 [label="mse = 0.0\nsamples = 2\nvalue = 0.4"] ;
342 -> 348 ;
349 [label="Adj Close <= 0.3\nmse = 0.0\nsamples = 7\nvalue = 0.4"] ;
341 -> 349 ;
350 [label="Adj Close <= 0.3\nmse = 0.0\nsamples = 2\nvalue = 0.4"] ;
349 -> 350 ;
351 [label="mse = 0.0\nsamples = 1\nvalue = 0.4"] ;
350 -> 351 ;
352 [label="mse = 0.0\nsamples = 1\nvalue = 0.4"] ;
350 -> 352 ;
353 [label="Adj Close <= 0.3\nmse = 0.0\nsamples = 5\nvalue = 0.4"] ;
349 -> 353 ;
354 [label="mse = 0.0\nsamples = 1\nvalue = 0.4"] ;
353 -> 354 ;
355 [label="Low <= 0.4\nmse = 0.0\nsamples = 4\nvalue = 0.4"] ;
353 -> 355 ;
356 [label="mse = 0.0\nsamples = 1\nvalue = 0.4"] ;
355 -> 356 ;
357 [label="mse = 0.0\nsamples = 3\nvalue = 0.4"] ;
355 -> 357 ;
358 [label="Adj Close <= 0.3\nmse = 0.0\nsamples = 12\nvalue = 0.4"] ;
340 -> 358 ;
359 [label="Adj Close <= 0.3\nmse = 0.0\nsamples = 6\nvalue = 0.4"] ;
358 -> 359 ;
360 [label="Low <= 0.4\nmse = 0.0\nsamples = 3\nvalue = 0.4"] ;
359 -> 360 ;
361 [label="mse = 0.0\nsamples = 2\nvalue = 0.4"] ;
360 -> 361 ;
362 [label="mse = 0.0\nsamples = 1\nvalue = 0.4"] ;
360 -> 362 ;
363 [label="Day <= 12.0\nmse = 0.0\nsamples = 3\nvalue = 0.4"] ;
359 -> 363 ;
364 [label="mse = 0.0\nsamples = 1\nvalue = 0.4"] ;
363 -> 364 ;
365 [label="mse = 0.0\nsamples = 2\nvalue = 0.4"] ;
363 -> 365 ;
366 [label="Day <= 25.0\nmse = 0.0\nsamples = 6\nvalue = 0.4"] ;
358 -> 366 ;
367 [label="Adj Close <= 0.3\nmse = 0.0\nsamples = 5\nvalue = 0.4"] ;
366 -> 367 ;
368 [label="Month <= 6.0\nmse = 0.0\nsamples = 2\nvalue = 0.4"] ;
367 -> 368 ;
369 [label="mse = 0.0\nsamples = 1\nvalue = 0.4"] ;
368 -> 369 ;
370 [label="mse = 0.0\nsamples = 1\nvalue = 0.4"] ;
368 -> 370 ;
371 [label="mse = 0.0\nsamples = 3\nvalue = 0.4"] ;
367 -> 371 ;
372 [label="mse = 0.0\nsamples = 1\nvalue = 0.4"] ;
366 -> 372 ;
373 [label="Adj Close <= 0.3\nmse = 0.0\nsamples = 15\nvalue = 0.5"] ;
339 -> 373 ;
374 [label="Adj Close <= 0.3\nmse = 0.0\nsamples = 9\nvalue = 0.5"] ;
373 -> 374 ;
375 [label="Volume <= 30347200.0\nmse = 0.0\nsamples = 4\nvalue = 0.5"] ;
374 -> 375 ;
376 [label="mse = 0.0\nsamples = 1\nvalue = 0.5"] ;
375 -> 376 ;
377 [label="High <= 0.5\nmse = 0.0\nsamples = 3\nvalue = 0.5"] ;
375 -> 377 ;
378 [label="High <= 0.5\nmse = 0.0\nsamples = 2\nvalue = 0.5"] ;
377 -> 378 ;
379 [label="mse = 0.0\nsamples = 1\nvalue = 0.5"] ;
378 -> 379 ;
380 [label="mse = 0.0\nsamples = 1\nvalue = 0.5"] ;
378 -> 380 ;
381 [label="mse = 0.0\nsamples = 1\nvalue = 0.5"] ;
377 -> 381 ;
382 [label="Adj Close <= 0.3\nmse = 0.0\nsamples = 5\nvalue = 0.5"] ;
374 -> 382 ;
383 [label="Year <= 1988.5\nmse = 0.0\nsamples = 2\nvalue = 0.5"] ;
382 -> 383 ;
384 [label="mse = 0.0\nsamples = 1\nvalue = 0.5"] ;
383 -> 384 ;
385 [label="mse = 0.0\nsamples = 1\nvalue = 0.5"] ;
383 -> 385 ;
386 [label="Low <= 0.5\nmse = 0.0\nsamples = 3\nvalue = 0.5"] ;
382 -> 386 ;
387 [label="mse = 0.0\nsamples = 2\nvalue = 0.5"] ;
386 -> 387 ;
388 [label="mse = 0.0\nsamples = 1\nvalue = 0.5"] ;
386 -> 388 ;
389 [label="Adj Close <= 0.3\nmse = 0.0\nsamples = 6\nvalue = 0.5"] ;
373 -> 389 ;
390 [label="Adj Close <= 0.3\nmse = 0.0\nsamples = 5\nvalue = 0.5"] ;
389 -> 390 ;
391 [label="mse = 0.0\nsamples = 3\nvalue = 0.5"] ;
390 -> 391 ;
392 [label="mse = 0.0\nsamples = 2\nvalue = 0.5"] ;
390 -> 392 ;
393 [label="mse = 0.0\nsamples = 1\nvalue = 0.5"] ;
389 -> 393 ;
394 [label="Low <= 0.6\nmse = 0.0\nsamples = 60\nvalue = 0.6"] ;
134 -> 394 ;
395 [label="Adj Close <= 0.3\nmse = 0.0\nsamples = 24\nvalue = 0.5"] ;
394 -> 395 ;
396 [label="Adj Close <= 0.3\nmse = 0.0\nsamples = 11\nvalue = 0.5"] ;
395 -> 396 ;
397 [label="Low <= 0.5\nmse = 0.0\nsamples = 6\nvalue = 0.5"] ;
396 -> 397 ;
398 [label="Volume <= 105580800.0\nmse = 0.0\nsamples = 3\nvalue = 0.5"] ;
397 -> 398 ;
399 [label="mse = 0.0\nsamples = 1\nvalue = 0.5"] ;
398 -> 399 ;
400 [label="Low <= 0.5\nmse = 0.0\nsamples = 2\nvalue = 0.5"] ;
398 -> 400 ;
401 [label="mse = 0.0\nsamples = 1\nvalue = 0.5"] ;
400 -> 401 ;
402 [label="mse = 0.0\nsamples = 1\nvalue = 0.5"] ;
400 -> 402 ;
403 [label="High <= 0.5\nmse = 0.0\nsamples = 3\nvalue = 0.5"] ;
397 -> 403 ;
404 [label="Open <= 0.5\nmse = 0.0\nsamples = 2\nvalue = 0.5"] ;
403 -> 404 ;
405 [label="mse = 0.0\nsamples = 1\nvalue = 0.5"] ;
404 -> 405 ;
406 [label="mse = 0.0\nsamples = 1\nvalue = 0.5"] ;
404 -> 406 ;
407 [label="mse = 0.0\nsamples = 1\nvalue = 0.5"] ;
403 -> 407 ;
408 [label="Adj Close <= 0.3\nmse = 0.0\nsamples = 5\nvalue = 0.5"] ;
396 -> 408 ;
409 [label="Volume <= 239558400.0\nmse = 0.0\nsamples = 3\nvalue = 0.5"] ;
408 -> 409 ;
410 [label="mse = 0.0\nsamples = 1\nvalue = 0.5"] ;
409 -> 410 ;
411 [label="Volume <= 256542400.0\nmse = 0.0\nsamples = 2\nvalue = 0.5"] ;
409 -> 411 ;
412 [label="mse = 0.0\nsamples = 1\nvalue = 0.5"] ;
411 -> 412 ;
413 [label="mse = 0.0\nsamples = 1\nvalue = 0.5"] ;
411 -> 413 ;
414 [label="Month <= 11.5\nmse = 0.0\nsamples = 2\nvalue = 0.5"] ;
408 -> 414 ;
415 [label="mse = 0.0\nsamples = 1\nvalue = 0.5"] ;
414 -> 415 ;
416 [label="mse = 0.0\nsamples = 1\nvalue = 0.5"] ;
414 -> 416 ;
417 [label="Low <= 0.5\nmse = 0.0\nsamples = 13\nvalue = 0.6"] ;
395 -> 417 ;
418 [label="Adj Close <= 0.3\nmse = 0.0\nsamples = 7\nvalue = 0.5"] ;
417 -> 418 ;
419 [label="Open <= 0.5\nmse = 0.0\nsamples = 4\nvalue = 0.5"] ;
418 -> 419 ;
420 [label="Adj Close <= 0.3\nmse = 0.0\nsamples = 2\nvalue = 0.5"] ;
419 -> 420 ;
421 [label="mse = 0.0\nsamples = 1\nvalue = 0.5"] ;
420 -> 421 ;
422 [label="mse = 0.0\nsamples = 1\nvalue = 0.5"] ;
420 -> 422 ;
423 [label="Adj Close <= 0.3\nmse = 0.0\nsamples = 2\nvalue = 0.5"] ;
419 -> 423 ;
424 [label="mse = 0.0\nsamples = 1\nvalue = 0.5"] ;
423 -> 424 ;
425 [label="mse = 0.0\nsamples = 1\nvalue = 0.5"] ;
423 -> 425 ;
426 [label="Volume <= 79041600.0\nmse = 0.0\nsamples = 3\nvalue = 0.6"] ;
418 -> 426 ;
427 [label="mse = 0.0\nsamples = 1\nvalue = 0.6"] ;
426 -> 427 ;
428 [label="Low <= 0.5\nmse = 0.0\nsamples = 2\nvalue = 0.6"] ;
426 -> 428 ;
429 [label="mse = 0.0\nsamples = 1\nvalue = 0.6"] ;
428 -> 429 ;
430 [label="mse = 0.0\nsamples = 1\nvalue = 0.6"] ;
428 -> 430 ;
431 [label="Month <= 10.5\nmse = 0.0\nsamples = 6\nvalue = 0.6"] ;
417 -> 431 ;
432 [label="Adj Close <= 0.4\nmse = 0.0\nsamples = 3\nvalue = 0.6"] ;
431 -> 432 ;
433 [label="mse = 0.0\nsamples = 1\nvalue = 0.6"] ;
432 -> 433 ;
434 [label="mse = 0.0\nsamples = 2\nvalue = 0.6"] ;
432 -> 434 ;
435 [label="Volume <= 98502400.0\nmse = 0.0\nsamples = 3\nvalue = 0.6"] ;
431 -> 435 ;
436 [label="mse = 0.0\nsamples = 1\nvalue = 0.6"] ;
435 -> 436 ;
437 [label="Month <= 11.5\nmse = 0.0\nsamples = 2\nvalue = 0.6"] ;
435 -> 437 ;
438 [label="mse = 0.0\nsamples = 1\nvalue = 0.6"] ;
437 -> 438 ;
439 [label="mse = 0.0\nsamples = 1\nvalue = 0.6"] ;
437 -> 439 ;
440 [label="Adj Close <= 0.4\nmse = 0.0\nsamples = 36\nvalue = 0.6"] ;
394 -> 440 ;
441 [label="Adj Close <= 0.4\nmse = 0.0\nsamples = 26\nvalue = 0.6"] ;
440 -> 441 ;
442 [label="Adj Close <= 0.4\nmse = 0.0\nsamples = 15\nvalue = 0.6"] ;
441 -> 442 ;
443 [label="Adj Close <= 0.4\nmse = 0.0\nsamples = 7\nvalue = 0.6"] ;
442 -> 443 ;
444 [label="Adj Close <= 0.4\nmse = 0.0\nsamples = 4\nvalue = 0.6"] ;
443 -> 444 ;
445 [label="Day <= 3.5\nmse = 0.0\nsamples = 2\nvalue = 0.6"] ;
444 -> 445 ;
446 [label="mse = 0.0\nsamples = 1\nvalue = 0.6"] ;
445 -> 446 ;
447 [label="mse = 0.0\nsamples = 1\nvalue = 0.6"] ;
445 -> 447 ;
448 [label="mse = 0.0\nsamples = 2\nvalue = 0.6"] ;
444 -> 448 ;
449 [label="Month <= 11.5\nmse = 0.0\nsamples = 3\nvalue = 0.6"] ;
443 -> 449 ;
450 [label="mse = 0.0\nsamples = 2\nvalue = 0.6"] ;
449 -> 450 ;
451 [label="mse = 0.0\nsamples = 1\nvalue = 0.6"] ;
449 -> 451 ;
452 [label="Adj Close <= 0.4\nmse = 0.0\nsamples = 8\nvalue = 0.6"] ;
442 -> 452 ;
453 [label="Low <= 0.6\nmse = 0.0\nsamples = 3\nvalue = 0.6"] ;
452 -> 453 ;
454 [label="mse = 0.0\nsamples = 2\nvalue = 0.6"] ;
453 -> 454 ;
455 [label="mse = 0.0\nsamples = 1\nvalue = 0.6"] ;
453 -> 455 ;
456 [label="Low <= 0.6\nmse = 0.0\nsamples = 5\nvalue = 0.6"] ;
452 -> 456 ;
457 [label="mse = 0.0\nsamples = 2\nvalue = 0.6"] ;
456 -> 457 ;
458 [label="Open <= 0.6\nmse = 0.0\nsamples = 3\nvalue = 0.6"] ;
456 -> 458 ;
459 [label="mse = 0.0\nsamples = 1\nvalue = 0.6"] ;
458 -> 459 ;
460 [label="mse = 0.0\nsamples = 2\nvalue = 0.6"] ;
458 -> 460 ;
461 [label="Low <= 0.6\nmse = 0.0\nsamples = 11\nvalue = 0.6"] ;
441 -> 461 ;
462 [label="Adj Close <= 0.4\nmse = 0.0\nsamples = 10\nvalue = 0.6"] ;
461 -> 462 ;
463 [label="Day <= 4.0\nmse = 0.0\nsamples = 3\nvalue = 0.6"] ;
462 -> 463 ;
464 [label="mse = 0.0\nsamples = 1\nvalue = 0.6"] ;
463 -> 464 ;
465 [label="Open <= 0.6\nmse = 0.0\nsamples = 2\nvalue = 0.6"] ;
463 -> 465 ;
466 [label="mse = 0.0\nsamples = 1\nvalue = 0.6"] ;
465 -> 466 ;
467 [label="mse = 0.0\nsamples = 1\nvalue = 0.6"] ;
465 -> 467 ;
468 [label="Day <= 27.5\nmse = 0.0\nsamples = 7\nvalue = 0.6"] ;
462 -> 468 ;
469 [label="mse = 0.0\nsamples = 5\nvalue = 0.6"] ;
468 -> 469 ;
470 [label="Day <= 29.5\nmse = 0.0\nsamples = 2\nvalue = 0.6"] ;
468 -> 470 ;
471 [label="mse = 0.0\nsamples = 1\nvalue = 0.6"] ;
470 -> 471 ;
472 [label="mse = 0.0\nsamples = 1\nvalue = 0.6"] ;
470 -> 472 ;
473 [label="mse = 0.0\nsamples = 1\nvalue = 0.6"] ;
461 -> 473 ;
474 [label="Open <= 0.7\nmse = 0.0\nsamples = 10\nvalue = 0.7"] ;
440 -> 474 ;
475 [label="High <= 0.7\nmse = 0.0\nsamples = 6\nvalue = 0.7"] ;
474 -> 475 ;
476 [label="Volume <= 72172800.0\nmse = 0.0\nsamples = 3\nvalue = 0.7"] ;
475 -> 476 ;
477 [label="mse = 0.0\nsamples = 1\nvalue = 0.7"] ;
476 -> 477 ;
478 [label="Month <= 1.5\nmse = 0.0\nsamples = 2\nvalue = 0.7"] ;
476 -> 478 ;
479 [label="mse = 0.0\nsamples = 1\nvalue = 0.7"] ;
478 -> 479 ;
480 [label="mse = 0.0\nsamples = 1\nvalue = 0.7"] ;
478 -> 480 ;
481 [label="Volume <= 80185600.0\nmse = 0.0\nsamples = 3\nvalue = 0.7"] ;
475 -> 481 ;
482 [label="Low <= 0.7\nmse = 0.0\nsamples = 2\nvalue = 0.7"] ;
481 -> 482 ;
483 [label="mse = 0.0\nsamples = 1\nvalue = 0.7"] ;
482 -> 483 ;
484 [label="mse = 0.0\nsamples = 1\nvalue = 0.7"] ;
482 -> 484 ;
485 [label="mse = 0.0\nsamples = 1\nvalue = 0.7"] ;
481 -> 485 ;
486 [label="Low <= 0.7\nmse = 0.0\nsamples = 4\nvalue = 0.7"] ;
474 -> 486 ;
487 [label="mse = 0.0\nsamples = 1\nvalue = 0.7"] ;
486 -> 487 ;
488 [label="Volume <= 73907200.0\nmse = 0.0\nsamples = 3\nvalue = 0.7"] ;
486 -> 488 ;
489 [label="mse = 0.0\nsamples = 1\nvalue = 0.7"] ;
488 -> 489 ;
490 [label="Open <= 0.7\nmse = 0.0\nsamples = 2\nvalue = 0.7"] ;
488 -> 490 ;
491 [label="mse = 0.0\nsamples = 1\nvalue = 0.7"] ;
490 -> 491 ;
492 [label="mse = 0.0\nsamples = 1\nvalue = 0.7"] ;
490 -> 492 ;
493 [label="Adj Close <= 0.8\nmse = 0.1\nsamples = 163\nvalue = 1.1"] ;
5 -> 493 ;
494 [label="Adj Close <= 0.6\nmse = 0.0\nsamples = 107\nvalue = 0.9"] ;
493 -> 494 ;
495 [label="Adj Close <= 0.5\nmse = 0.0\nsamples = 61\nvalue = 0.8"] ;
494 -> 495 ;
496 [label="Adj Close <= 0.5\nmse = 0.0\nsamples = 29\nvalue = 0.8"] ;
495 -> 496 ;
497 [label="High <= 0.8\nmse = 0.0\nsamples = 11\nvalue = 0.8"] ;
496 -> 497 ;
498 [label="High <= 0.8\nmse = 0.0\nsamples = 5\nvalue = 0.7"] ;
497 -> 498 ;
499 [label="Day <= 7.0\nmse = 0.0\nsamples = 2\nvalue = 0.7"] ;
498 -> 499 ;
500 [label="mse = 0.0\nsamples = 1\nvalue = 0.7"] ;
499 -> 500 ;
501 [label="mse = 0.0\nsamples = 1\nvalue = 0.7"] ;
499 -> 501 ;
502 [label="Day <= 21.5\nmse = 0.0\nsamples = 3\nvalue = 0.8"] ;
498 -> 502 ;
503 [label="Open <= 0.7\nmse = 0.0\nsamples = 2\nvalue = 0.8"] ;
502 -> 503 ;
504 [label="mse = 0.0\nsamples = 1\nvalue = 0.8"] ;
503 -> 504 ;
505 [label="mse = 0.0\nsamples = 1\nvalue = 0.8"] ;
503 -> 505 ;
506 [label="mse = 0.0\nsamples = 1\nvalue = 0.7"] ;
502 -> 506 ;
507 [label="Adj Close <= 0.5\nmse = 0.0\nsamples = 6\nvalue = 0.8"] ;
497 -> 507 ;
508 [label="mse = 0.0\nsamples = 1\nvalue = 0.8"] ;
507 -> 508 ;
509 [label="Adj Close <= 0.5\nmse = 0.0\nsamples = 5\nvalue = 0.8"] ;
507 -> 509 ;
510 [label="Day <= 21.0\nmse = 0.0\nsamples = 2\nvalue = 0.8"] ;
509 -> 510 ;
511 [label="mse = 0.0\nsamples = 1\nvalue = 0.8"] ;
510 -> 511 ;
512 [label="mse = 0.0\nsamples = 1\nvalue = 0.8"] ;
510 -> 512 ;
513 [label="mse = 0.0\nsamples = 3\nvalue = 0.8"] ;
509 -> 513 ;
514 [label="Adj Close <= 0.5\nmse = 0.0\nsamples = 18\nvalue = 0.8"] ;
496 -> 514 ;
515 [label="Adj Close <= 0.5\nmse = 0.0\nsamples = 16\nvalue = 0.8"] ;
514 -> 515 ;
516 [label="Adj Close <= 0.5\nmse = 0.0\nsamples = 8\nvalue = 0.8"] ;
515 -> 516 ;
517 [label="Day <= 24.0\nmse = 0.0\nsamples = 5\nvalue = 0.8"] ;
516 -> 517 ;
518 [label="Day <= 19.0\nmse = 0.0\nsamples = 3\nvalue = 0.8"] ;
517 -> 518 ;
519 [label="mse = 0.0\nsamples = 2\nvalue = 0.8"] ;
518 -> 519 ;
520 [label="mse = 0.0\nsamples = 1\nvalue = 0.8"] ;
518 -> 520 ;
521 [label="mse = 0.0\nsamples = 2\nvalue = 0.8"] ;
517 -> 521 ;
522 [label="Low <= 0.8\nmse = 0.0\nsamples = 3\nvalue = 0.8"] ;
516 -> 522 ;
523 [label="mse = 0.0\nsamples = 2\nvalue = 0.8"] ;
522 -> 523 ;
524 [label="mse = 0.0\nsamples = 1\nvalue = 0.8"] ;
522 -> 524 ;
525 [label="Adj Close <= 0.5\nmse = 0.0\nsamples = 8\nvalue = 0.8"] ;
515 -> 525 ;
526 [label="Adj Close <= 0.5\nmse = 0.0\nsamples = 4\nvalue = 0.8"] ;
525 -> 526 ;
527 [label="mse = 0.0\nsamples = 2\nvalue = 0.8"] ;
526 -> 527 ;
528 [label="Day <= 12.5\nmse = 0.0\nsamples = 2\nvalue = 0.8"] ;
526 -> 528 ;
529 [label="mse = 0.0\nsamples = 1\nvalue = 0.8"] ;
528 -> 529 ;
530 [label="mse = 0.0\nsamples = 1\nvalue = 0.8"] ;
528 -> 530 ;
531 [label="Adj Close <= 0.5\nmse = 0.0\nsamples = 4\nvalue = 0.8"] ;
525 -> 531 ;
532 [label="mse = 0.0\nsamples = 1\nvalue = 0.8"] ;
531 -> 532 ;
533 [label="mse = 0.0\nsamples = 3\nvalue = 0.8"] ;
531 -> 533 ;
534 [label="High <= 0.9\nmse = 0.0\nsamples = 2\nvalue = 0.8"] ;
514 -> 534 ;
535 [label="mse = 0.0\nsamples = 1\nvalue = 0.8"] ;
534 -> 535 ;
536 [label="mse = 0.0\nsamples = 1\nvalue = 0.8"] ;
534 -> 536 ;
537 [label="Adj Close <= 0.6\nmse = 0.0\nsamples = 32\nvalue = 0.9"] ;
495 -> 537 ;
538 [label="Adj Close <= 0.5\nmse = 0.0\nsamples = 15\nvalue = 0.9"] ;
537 -> 538 ;
539 [label="Adj Close <= 0.5\nmse = 0.0\nsamples = 6\nvalue = 0.8"] ;
538 -> 539 ;
540 [label="Adj Close <= 0.5\nmse = 0.0\nsamples = 5\nvalue = 0.8"] ;
539 -> 540 ;
541 [label="Volume <= 61840000.0\nmse = 0.0\nsamples = 3\nvalue = 0.8"] ;
540 -> 541 ;
542 [label="mse = 0.0\nsamples = 1\nvalue = 0.8"] ;
541 -> 542 ;
543 [label="mse = 0.0\nsamples = 2\nvalue = 0.8"] ;
541 -> 543 ;
544 [label="Low <= 0.8\nmse = 0.0\nsamples = 2\nvalue = 0.8"] ;
540 -> 544 ;
545 [label="mse = 0.0\nsamples = 1\nvalue = 0.8"] ;
544 -> 545 ;
546 [label="mse = 0.0\nsamples = 1\nvalue = 0.8"] ;
544 -> 546 ;
547 [label="mse = 0.0\nsamples = 1\nvalue = 0.8"] ;
539 -> 547 ;
548 [label="Adj Close <= 0.6\nmse = 0.0\nsamples = 9\nvalue = 0.9"] ;
538 -> 548 ;
549 [label="Adj Close <= 0.5\nmse = 0.0\nsamples = 6\nvalue = 0.9"] ;
548 -> 549 ;
550 [label="Adj Close <= 0.5\nmse = 0.0\nsamples = 3\nvalue = 0.9"] ;
549 -> 550 ;
551 [label="mse = 0.0\nsamples = 1\nvalue = 0.9"] ;
550 -> 551 ;
552 [label="mse = 0.0\nsamples = 2\nvalue = 0.9"] ;
550 -> 552 ;
553 [label="Volume <= 57076800.0\nmse = 0.0\nsamples = 3\nvalue = 0.9"] ;
549 -> 553 ;
554 [label="mse = 0.0\nsamples = 1\nvalue = 0.9"] ;
553 -> 554 ;
555 [label="mse = 0.0\nsamples = 2\nvalue = 0.9"] ;
553 -> 555 ;
556 [label="Low <= 0.8\nmse = 0.0\nsamples = 3\nvalue = 0.9"] ;
548 -> 556 ;
557 [label="mse = 0.0\nsamples = 1\nvalue = 0.9"] ;
556 -> 557 ;
558 [label="mse = 0.0\nsamples = 2\nvalue = 0.9"] ;
556 -> 558 ;
559 [label="Adj Close <= 0.6\nmse = 0.0\nsamples = 17\nvalue = 0.9"] ;
537 -> 559 ;
560 [label="Adj Close <= 0.6\nmse = 0.0\nsamples = 8\nvalue = 0.9"] ;
559 -> 560 ;
561 [label="High <= 0.9\nmse = 0.0\nsamples = 4\nvalue = 0.9"] ;
560 -> 561 ;
562 [label="mse = 0.0\nsamples = 2\nvalue = 0.9"] ;
561 -> 562 ;
563 [label="Volume <= 74793600.0\nmse = 0.0\nsamples = 2\nvalue = 0.9"] ;
561 -> 563 ;
564 [label="mse = 0.0\nsamples = 1\nvalue = 0.9"] ;
563 -> 564 ;
565 [label="mse = 0.0\nsamples = 1\nvalue = 0.9"] ;
563 -> 565 ;
566 [label="Adj Close <= 0.6\nmse = 0.0\nsamples = 4\nvalue = 0.9"] ;
560 -> 566 ;
567 [label="mse = 0.0\nsamples = 1\nvalue = 0.9"] ;
566 -> 567 ;
568 [label="mse = 0.0\nsamples = 3\nvalue = 0.9"] ;
566 -> 568 ;
569 [label="Open <= 0.9\nmse = 0.0\nsamples = 9\nvalue = 0.9"] ;
559 -> 569 ;
570 [label="Adj Close <= 0.6\nmse = 0.0\nsamples = 3\nvalue = 0.9"] ;
569 -> 570 ;
571 [label="mse = 0.0\nsamples = 2\nvalue = 0.9"] ;
570 -> 571 ;
572 [label="mse = 0.0\nsamples = 1\nvalue = 0.9"] ;
570 -> 572 ;
573 [label="Adj Close <= 0.6\nmse = 0.0\nsamples = 6\nvalue = 0.9"] ;
569 -> 573 ;
574 [label="Adj Close <= 0.6\nmse = 0.0\nsamples = 4\nvalue = 0.9"] ;
573 -> 574 ;
575 [label="High <= 0.9\nmse = 0.0\nsamples = 2\nvalue = 0.9"] ;
574 -> 575 ;
576 [label="mse = 0.0\nsamples = 1\nvalue = 0.9"] ;
575 -> 576 ;
577 [label="mse = 0.0\nsamples = 1\nvalue = 0.9"] ;
575 -> 577 ;
578 [label="Adj Close <= 0.6\nmse = 0.0\nsamples = 2\nvalue = 0.9"] ;
574 -> 578 ;
579 [label="mse = 0.0\nsamples = 1\nvalue = 0.9"] ;
578 -> 579 ;
580 [label="mse = 0.0\nsamples = 1\nvalue = 0.9"] ;
578 -> 580 ;
581 [label="Open <= 0.9\nmse = 0.0\nsamples = 2\nvalue = 0.9"] ;
573 -> 581 ;
582 [label="mse = 0.0\nsamples = 1\nvalue = 0.9"] ;
581 -> 582 ;
583 [label="mse = 0.0\nsamples = 1\nvalue = 0.9"] ;
581 -> 583 ;
584 [label="Low <= 1.0\nmse = 0.0\nsamples = 46\nvalue = 1.0"] ;
494 -> 584 ;
585 [label="Adj Close <= 0.6\nmse = 0.0\nsamples = 13\nvalue = 1.0"] ;
584 -> 585 ;
586 [label="Adj Close <= 0.6\nmse = 0.0\nsamples = 9\nvalue = 0.9"] ;
585 -> 586 ;
587 [label="Day <= 8.0\nmse = 0.0\nsamples = 4\nvalue = 0.9"] ;
586 -> 587 ;
588 [label="mse = 0.0\nsamples = 1\nvalue = 0.9"] ;
587 -> 588 ;
589 [label="Day <= 17.0\nmse = 0.0\nsamples = 3\nvalue = 0.9"] ;
587 -> 589 ;
590 [label="Volume <= 65102400.0\nmse = 0.0\nsamples = 2\nvalue = 0.9"] ;
589 -> 590 ;
591 [label="mse = 0.0\nsamples = 1\nvalue = 0.9"] ;
590 -> 591 ;
592 [label="mse = 0.0\nsamples = 1\nvalue = 0.9"] ;
590 -> 592 ;
593 [label="mse = 0.0\nsamples = 1\nvalue = 0.9"] ;
589 -> 593 ;
594 [label="Adj Close <= 0.6\nmse = 0.0\nsamples = 5\nvalue = 1.0"] ;
586 -> 594 ;
595 [label="Low <= 0.9\nmse = 0.0\nsamples = 3\nvalue = 1.0"] ;
594 -> 595 ;
596 [label="mse = 0.0\nsamples = 2\nvalue = 1.0"] ;
595 -> 596 ;
597 [label="mse = 0.0\nsamples = 1\nvalue = 1.0"] ;
595 -> 597 ;
598 [label="mse = 0.0\nsamples = 2\nvalue = 1.0"] ;
594 -> 598 ;
599 [label="Open <= 1.0\nmse = 0.0\nsamples = 4\nvalue = 1.0"] ;
585 -> 599 ;
600 [label="mse = 0.0\nsamples = 1\nvalue = 1.0"] ;
599 -> 600 ;
601 [label="Adj Close <= 0.6\nmse = 0.0\nsamples = 3\nvalue = 1.0"] ;
599 -> 601 ;
602 [label="mse = 0.0\nsamples = 1\nvalue = 1.0"] ;
601 -> 602 ;
603 [label="mse = 0.0\nsamples = 2\nvalue = 1.0"] ;
601 -> 603 ;
604 [label="Adj Close <= 0.7\nmse = 0.0\nsamples = 33\nvalue = 1.0"] ;
584 -> 604 ;
605 [label="Adj Close <= 0.7\nmse = 0.0\nsamples = 25\nvalue = 1.0"] ;
604 -> 605 ;
606 [label="High <= 1.0\nmse = 0.0\nsamples = 7\nvalue = 1.0"] ;
605 -> 606 ;
607 [label="Day <= 9.5\nmse = 0.0\nsamples = 2\nvalue = 1.0"] ;
606 -> 607 ;
608 [label="mse = 0.0\nsamples = 1\nvalue = 1.0"] ;
607 -> 608 ;
609 [label="mse = 0.0\nsamples = 1\nvalue = 1.0"] ;
607 -> 609 ;
610 [label="Adj Close <= 0.7\nmse = 0.0\nsamples = 5\nvalue = 1.0"] ;
606 -> 610 ;
611 [label="Adj Close <= 0.7\nmse = 0.0\nsamples = 3\nvalue = 1.0"] ;
610 -> 611 ;
612 [label="mse = 0.0\nsamples = 1\nvalue = 1.0"] ;
611 -> 612 ;
613 [label="mse = 0.0\nsamples = 2\nvalue = 1.0"] ;
611 -> 613 ;
614 [label="Adj Close <= 0.7\nmse = 0.0\nsamples = 2\nvalue = 1.0"] ;
610 -> 614 ;
615 [label="mse = 0.0\nsamples = 1\nvalue = 1.0"] ;
614 -> 615 ;
616 [label="mse = 0.0\nsamples = 1\nvalue = 1.0"] ;
614 -> 616 ;
617 [label="Adj Close <= 0.7\nmse = 0.0\nsamples = 18\nvalue = 1.0"] ;
605 -> 617 ;
618 [label="Adj Close <= 0.7\nmse = 0.0\nsamples = 10\nvalue = 1.0"] ;
617 -> 618 ;
619 [label="Month <= 3.5\nmse = 0.0\nsamples = 3\nvalue = 1.0"] ;
618 -> 619 ;
620 [label="mse = 0.0\nsamples = 1\nvalue = 1.0"] ;
619 -> 620 ;
621 [label="mse = 0.0\nsamples = 2\nvalue = 1.0"] ;
619 -> 621 ;
622 [label="Adj Close <= 0.7\nmse = 0.0\nsamples = 7\nvalue = 1.0"] ;
618 -> 622 ;
623 [label="Day <= 10.0\nmse = 0.0\nsamples = 4\nvalue = 1.0"] ;
622 -> 623 ;
624 [label="mse = 0.0\nsamples = 1\nvalue = 1.0"] ;
623 -> 624 ;
625 [label="mse = 0.0\nsamples = 3\nvalue = 1.0"] ;
623 -> 625 ;
626 [label="mse = 0.0\nsamples = 3\nvalue = 1.0"] ;
622 -> 626 ;
627 [label="Adj Close <= 0.7\nmse = 0.0\nsamples = 8\nvalue = 1.1"] ;
617 -> 627 ;
628 [label="mse = 0.0\nsamples = 4\nvalue = 1.0"] ;
627 -> 628 ;
629 [label="High <= 1.1\nmse = 0.0\nsamples = 4\nvalue = 1.1"] ;
627 -> 629 ;
630 [label="Low <= 1.0\nmse = 0.0\nsamples = 2\nvalue = 1.1"] ;
629 -> 630 ;
631 [label="mse = 0.0\nsamples = 1\nvalue = 1.1"] ;
630 -> 631 ;
632 [label="mse = 0.0\nsamples = 1\nvalue = 1.1"] ;
630 -> 632 ;
633 [label="mse = 0.0\nsamples = 2\nvalue = 1.1"] ;
629 -> 633 ;
634 [label="High <= 1.1\nmse = 0.0\nsamples = 8\nvalue = 1.1"] ;
604 -> 634 ;
635 [label="Adj Close <= 0.7\nmse = 0.0\nsamples = 7\nvalue = 1.1"] ;
634 -> 635 ;
636 [label="Adj Close <= 0.7\nmse = 0.0\nsamples = 5\nvalue = 1.1"] ;
635 -> 636 ;
637 [label="mse = 0.0\nsamples = 3\nvalue = 1.1"] ;
636 -> 637 ;
638 [label="Low <= 1.0\nmse = 0.0\nsamples = 2\nvalue = 1.1"] ;
636 -> 638 ;
639 [label="mse = 0.0\nsamples = 1\nvalue = 1.1"] ;
638 -> 639 ;
640 [label="mse = 0.0\nsamples = 1\nvalue = 1.1"] ;
638 -> 640 ;
641 [label="Year <= 1990.5\nmse = 0.0\nsamples = 2\nvalue = 1.1"] ;
635 -> 641 ;
642 [label="mse = 0.0\nsamples = 1\nvalue = 1.1"] ;
641 -> 642 ;
643 [label="mse = 0.0\nsamples = 1\nvalue = 1.1"] ;
641 -> 643 ;
644 [label="mse = 0.0\nsamples = 1\nvalue = 1.1"] ;
634 -> 644 ;
645 [label="Adj Close <= 0.9\nmse = 0.0\nsamples = 56\nvalue = 1.4"] ;
493 -> 645 ;
646 [label="Adj Close <= 0.8\nmse = 0.0\nsamples = 28\nvalue = 1.4"] ;
645 -> 646 ;
647 [label="Adj Close <= 0.8\nmse = 0.0\nsamples = 5\nvalue = 1.3"] ;
646 -> 647 ;
648 [label="Adj Close <= 0.8\nmse = 0.0\nsamples = 2\nvalue = 1.2"] ;
647 -> 648 ;
649 [label="mse = 0.0\nsamples = 1\nvalue = 1.2"] ;
648 -> 649 ;
650 [label="mse = 0.0\nsamples = 1\nvalue = 1.3"] ;
648 -> 650 ;
651 [label="Adj Close <= 0.8\nmse = 0.0\nsamples = 3\nvalue = 1.3"] ;
647 -> 651 ;
652 [label="Month <= 4.0\nmse = 0.0\nsamples = 2\nvalue = 1.3"] ;
651 -> 652 ;
653 [label="mse = 0.0\nsamples = 1\nvalue = 1.3"] ;
652 -> 653 ;
654 [label="mse = 0.0\nsamples = 1\nvalue = 1.3"] ;
652 -> 654 ;
655 [label="mse = 0.0\nsamples = 1\nvalue = 1.3"] ;
651 -> 655 ;
656 [label="Adj Close <= 0.9\nmse = 0.0\nsamples = 23\nvalue = 1.4"] ;
646 -> 656 ;
657 [label="Adj Close <= 0.9\nmse = 0.0\nsamples = 8\nvalue = 1.4"] ;
656 -> 657 ;
658 [label="Open <= 1.3\nmse = 0.0\nsamples = 2\nvalue = 1.3"] ;
657 -> 658 ;
659 [label="mse = 0.0\nsamples = 1\nvalue = 1.3"] ;
658 -> 659 ;
660 [label="mse = 0.0\nsamples = 1\nvalue = 1.3"] ;
658 -> 660 ;
661 [label="Volume <= 69756800.0\nmse = 0.0\nsamples = 6\nvalue = 1.4"] ;
657 -> 661 ;
662 [label="mse = 0.0\nsamples = 2\nvalue = 1.4"] ;
661 -> 662 ;
663 [label="Day <= 19.5\nmse = 0.0\nsamples = 4\nvalue = 1.4"] ;
661 -> 663 ;
664 [label="mse = 0.0\nsamples = 2\nvalue = 1.4"] ;
663 -> 664 ;
665 [label="mse = 0.0\nsamples = 2\nvalue = 1.4"] ;
663 -> 665 ;
666 [label="Adj Close <= 0.9\nmse = 0.0\nsamples = 15\nvalue = 1.4"] ;
656 -> 666 ;
667 [label="Adj Close <= 0.9\nmse = 0.0\nsamples = 9\nvalue = 1.4"] ;
666 -> 667 ;
668 [label="Adj Close <= 0.9\nmse = 0.0\nsamples = 5\nvalue = 1.4"] ;
667 -> 668 ;
669 [label="mse = 0.0\nsamples = 1\nvalue = 1.4"] ;
668 -> 669 ;
670 [label="mse = 0.0\nsamples = 4\nvalue = 1.4"] ;
668 -> 670 ;
671 [label="High <= 1.4\nmse = 0.0\nsamples = 4\nvalue = 1.4"] ;
667 -> 671 ;
672 [label="mse = 0.0\nsamples = 2\nvalue = 1.4"] ;
671 -> 672 ;
673 [label="mse = 0.0\nsamples = 2\nvalue = 1.4"] ;
671 -> 673 ;
674 [label="Open <= 1.4\nmse = 0.0\nsamples = 6\nvalue = 1.4"] ;
666 -> 674 ;
675 [label="Adj Close <= 0.9\nmse = 0.0\nsamples = 3\nvalue = 1.4"] ;
674 -> 675 ;
676 [label="mse = 0.0\nsamples = 2\nvalue = 1.4"] ;
675 -> 676 ;
677 [label="mse = 0.0\nsamples = 1\nvalue = 1.4"] ;
675 -> 677 ;
678 [label="Low <= 1.4\nmse = 0.0\nsamples = 3\nvalue = 1.4"] ;
674 -> 678 ;
679 [label="mse = 0.0\nsamples = 2\nvalue = 1.4"] ;
678 -> 679 ;
680 [label="mse = 0.0\nsamples = 1\nvalue = 1.4"] ;
678 -> 680 ;
681 [label="Adj Close <= 0.9\nmse = 0.0\nsamples = 28\nvalue = 1.4"] ;
645 -> 681 ;
682 [label="Adj Close <= 0.9\nmse = 0.0\nsamples = 18\nvalue = 1.4"] ;
681 -> 682 ;
683 [label="Adj Close <= 0.9\nmse = 0.0\nsamples = 11\nvalue = 1.4"] ;
682 -> 683 ;
684 [label="Adj Close <= 0.9\nmse = 0.0\nsamples = 5\nvalue = 1.4"] ;
683 -> 684 ;
685 [label="mse = 0.0\nsamples = 2\nvalue = 1.4"] ;
684 -> 685 ;
686 [label="Volume <= 58736000.0\nmse = 0.0\nsamples = 3\nvalue = 1.4"] ;
684 -> 686 ;
687 [label="mse = 0.0\nsamples = 2\nvalue = 1.4"] ;
686 -> 687 ;
688 [label="mse = 0.0\nsamples = 1\nvalue = 1.4"] ;
686 -> 688 ;
689 [label="Adj Close <= 0.9\nmse = 0.0\nsamples = 6\nvalue = 1.4"] ;
683 -> 689 ;
690 [label="High <= 1.4\nmse = 0.0\nsamples = 4\nvalue = 1.4"] ;
689 -> 690 ;
691 [label="mse = 0.0\nsamples = 2\nvalue = 1.4"] ;
690 -> 691 ;
692 [label="Adj Close <= 0.9\nmse = 0.0\nsamples = 2\nvalue = 1.4"] ;
690 -> 692 ;
693 [label="mse = 0.0\nsamples = 1\nvalue = 1.4"] ;
692 -> 693 ;
694 [label="mse = 0.0\nsamples = 1\nvalue = 1.4"] ;
692 -> 694 ;
695 [label="mse = 0.0\nsamples = 2\nvalue = 1.4"] ;
689 -> 695 ;
696 [label="High <= 1.5\nmse = 0.0\nsamples = 7\nvalue = 1.4"] ;
682 -> 696 ;
697 [label="Volume <= 67339200.0\nmse = 0.0\nsamples = 4\nvalue = 1.4"] ;
696 -> 697 ;
698 [label="mse = 0.0\nsamples = 2\nvalue = 1.4"] ;
697 -> 698 ;
699 [label="mse = 0.0\nsamples = 2\nvalue = 1.4"] ;
697 -> 699 ;
700 [label="Adj Close <= 0.9\nmse = 0.0\nsamples = 3\nvalue = 1.4"] ;
696 -> 700 ;
701 [label="mse = 0.0\nsamples = 1\nvalue = 1.4"] ;
700 -> 701 ;
702 [label="High <= 1.5\nmse = 0.0\nsamples = 2\nvalue = 1.4"] ;
700 -> 702 ;
703 [label="mse = 0.0\nsamples = 1\nvalue = 1.4"] ;
702 -> 703 ;
704 [label="mse = 0.0\nsamples = 1\nvalue = 1.4"] ;
702 -> 704 ;
705 [label="Adj Close <= 0.9\nmse = 0.0\nsamples = 10\nvalue = 1.5"] ;
681 -> 705 ;
706 [label="Volume <= 57241600.0\nmse = 0.0\nsamples = 4\nvalue = 1.5"] ;
705 -> 706 ;
707 [label="mse = 0.0\nsamples = 1\nvalue = 1.5"] ;
706 -> 707 ;
708 [label="Adj Close <= 0.9\nmse = 0.0\nsamples = 3\nvalue = 1.5"] ;
706 -> 708 ;
709 [label="High <= 1.5\nmse = 0.0\nsamples = 2\nvalue = 1.5"] ;
708 -> 709 ;
710 [label="mse = 0.0\nsamples = 1\nvalue = 1.5"] ;
709 -> 710 ;
711 [label="mse = 0.0\nsamples = 1\nvalue = 1.5"] ;
709 -> 711 ;
712 [label="mse = 0.0\nsamples = 1\nvalue = 1.5"] ;
708 -> 712 ;
713 [label="Adj Close <= 0.9\nmse = 0.0\nsamples = 6\nvalue = 1.5"] ;
705 -> 713 ;
714 [label="Month <= 5.5\nmse = 0.0\nsamples = 2\nvalue = 1.5"] ;
713 -> 714 ;
715 [label="mse = 0.0\nsamples = 1\nvalue = 1.5"] ;
714 -> 715 ;
716 [label="mse = 0.0\nsamples = 1\nvalue = 1.5"] ;
714 -> 716 ;
717 [label="Day <= 23.0\nmse = 0.0\nsamples = 4\nvalue = 1.5"] ;
713 -> 717 ;
718 [label="High <= 1.5\nmse = 0.0\nsamples = 3\nvalue = 1.5"] ;
717 -> 718 ;
719 [label="mse = 0.0\nsamples = 1\nvalue = 1.5"] ;
718 -> 719 ;
720 [label="mse = 0.0\nsamples = 2\nvalue = 1.5"] ;
718 -> 720 ;
721 [label="mse = 0.0\nsamples = 1\nvalue = 1.5"] ;
717 -> 721 ;
722 [label="Adj Close <= 1.5\nmse = 0.1\nsamples = 393\nvalue = 2.5"] ;
4 -> 722 ;
723 [label="High <= 2.0\nmse = 0.1\nsamples = 93\nvalue = 2.0"] ;
722 -> 723 ;
724 [label="Adj Close <= 1.1\nmse = 0.0\nsamples = 46\nvalue = 1.7"] ;
723 -> 724 ;
725 [label="Low <= 1.6\nmse = 0.0\nsamples = 23\nvalue = 1.6"] ;
724 -> 725 ;
726 [label="Adj Close <= 1.0\nmse = 0.0\nsamples = 20\nvalue = 1.5"] ;
725 -> 726 ;
727 [label="Adj Close <= 1.0\nmse = 0.0\nsamples = 15\nvalue = 1.5"] ;
726 -> 727 ;
728 [label="Adj Close <= 1.0\nmse = 0.0\nsamples = 7\nvalue = 1.5"] ;
727 -> 728 ;
729 [label="mse = 0.0\nsamples = 1\nvalue = 1.5"] ;
728 -> 729 ;
730 [label="Volume <= 51307200.0\nmse = 0.0\nsamples = 6\nvalue = 1.5"] ;
728 -> 730 ;
731 [label="Volume <= 35670400.0\nmse = 0.0\nsamples = 2\nvalue = 1.5"] ;
730 -> 731 ;
732 [label="mse = 0.0\nsamples = 1\nvalue = 1.5"] ;
731 -> 732 ;
733 [label="mse = 0.0\nsamples = 1\nvalue = 1.5"] ;
731 -> 733 ;
734 [label="Volume <= 64881600.0\nmse = 0.0\nsamples = 4\nvalue = 1.5"] ;
730 -> 734 ;
735 [label="mse = 0.0\nsamples = 2\nvalue = 1.5"] ;
734 -> 735 ;
736 [label="mse = 0.0\nsamples = 2\nvalue = 1.5"] ;
734 -> 736 ;
737 [label="Adj Close <= 1.0\nmse = 0.0\nsamples = 8\nvalue = 1.5"] ;
727 -> 737 ;
738 [label="Adj Close <= 1.0\nmse = 0.0\nsamples = 3\nvalue = 1.5"] ;
737 -> 738 ;
739 [label="mse = 0.0\nsamples = 1\nvalue = 1.5"] ;
738 -> 739 ;
740 [label="mse = 0.0\nsamples = 2\nvalue = 1.5"] ;
738 -> 740 ;
741 [label="Adj Close <= 1.0\nmse = 0.0\nsamples = 5\nvalue = 1.5"] ;
737 -> 741 ;
742 [label="Volume <= 46686400.0\nmse = 0.0\nsamples = 3\nvalue = 1.5"] ;
741 -> 742 ;
743 [label="mse = 0.0\nsamples = 1\nvalue = 1.5"] ;
742 -> 743 ;
744 [label="mse = 0.0\nsamples = 2\nvalue = 1.5"] ;
742 -> 744 ;
745 [label="Low <= 1.5\nmse = 0.0\nsamples = 2\nvalue = 1.6"] ;
741 -> 745 ;
746 [label="mse = 0.0\nsamples = 1\nvalue = 1.6"] ;
745 -> 746 ;
747 [label="mse = 0.0\nsamples = 1\nvalue = 1.6"] ;
745 -> 747 ;
748 [label="Open <= 1.5\nmse = 0.0\nsamples = 5\nvalue = 1.6"] ;
726 -> 748 ;
749 [label="mse = 0.0\nsamples = 1\nvalue = 1.6"] ;
748 -> 749 ;
750 [label="Adj Close <= 1.0\nmse = 0.0\nsamples = 4\nvalue = 1.6"] ;
748 -> 750 ;
751 [label="mse = 0.0\nsamples = 2\nvalue = 1.6"] ;
750 -> 751 ;
752 [label="Volume <= 71540800.0\nmse = 0.0\nsamples = 2\nvalue = 1.6"] ;
750 -> 752 ;
753 [label="mse = 0.0\nsamples = 1\nvalue = 1.6"] ;
752 -> 753 ;
754 [label="mse = 0.0\nsamples = 1\nvalue = 1.6"] ;
752 -> 754 ;
755 [label="Open <= 1.6\nmse = 0.0\nsamples = 3\nvalue = 1.7"] ;
725 -> 755 ;
756 [label="mse = 0.0\nsamples = 1\nvalue = 1.6"] ;
755 -> 756 ;
757 [label="Volume <= 62196800.0\nmse = 0.0\nsamples = 2\nvalue = 1.7"] ;
755 -> 757 ;
758 [label="mse = 0.0\nsamples = 1\nvalue = 1.7"] ;
757 -> 758 ;
759 [label="mse = 0.0\nsamples = 1\nvalue = 1.7"] ;
757 -> 759 ;
760 [label="Adj Close <= 1.2\nmse = 0.0\nsamples = 23\nvalue = 1.8"] ;
724 -> 760 ;
761 [label="Day <= 17.5\nmse = 0.0\nsamples = 12\nvalue = 1.8"] ;
760 -> 761 ;
762 [label="High <= 1.7\nmse = 0.0\nsamples = 4\nvalue = 1.7"] ;
761 -> 762 ;
763 [label="Low <= 1.7\nmse = 0.0\nsamples = 2\nvalue = 1.7"] ;
762 -> 763 ;
764 [label="mse = 0.0\nsamples = 1\nvalue = 1.7"] ;
763 -> 764 ;
765 [label="mse = 0.0\nsamples = 1\nvalue = 1.7"] ;
763 -> 765 ;
766 [label="Low <= 1.7\nmse = 0.0\nsamples = 2\nvalue = 1.7"] ;
762 -> 766 ;
767 [label="mse = 0.0\nsamples = 1\nvalue = 1.7"] ;
766 -> 767 ;
768 [label="mse = 0.0\nsamples = 1\nvalue = 1.7"] ;
766 -> 768 ;
769 [label="Low <= 1.7\nmse = 0.0\nsamples = 8\nvalue = 1.8"] ;
761 -> 769 ;
770 [label="mse = 0.0\nsamples = 2\nvalue = 1.8"] ;
769 -> 770 ;
771 [label="High <= 1.8\nmse = 0.0\nsamples = 6\nvalue = 1.8"] ;
769 -> 771 ;
772 [label="Adj Close <= 1.1\nmse = 0.0\nsamples = 4\nvalue = 1.8"] ;
771 -> 772 ;
773 [label="Open <= 1.8\nmse = 0.0\nsamples = 2\nvalue = 1.8"] ;
772 -> 773 ;
774 [label="mse = 0.0\nsamples = 1\nvalue = 1.8"] ;
773 -> 774 ;
775 [label="mse = 0.0\nsamples = 1\nvalue = 1.8"] ;
773 -> 775 ;
776 [label="mse = 0.0\nsamples = 2\nvalue = 1.8"] ;
772 -> 776 ;
777 [label="High <= 1.8\nmse = 0.0\nsamples = 2\nvalue = 1.8"] ;
771 -> 777 ;
778 [label="mse = 0.0\nsamples = 1\nvalue = 1.8"] ;
777 -> 778 ;
779 [label="mse = 0.0\nsamples = 1\nvalue = 1.8"] ;
777 -> 779 ;
780 [label="Low <= 1.9\nmse = 0.0\nsamples = 11\nvalue = 1.9"] ;
760 -> 780 ;
781 [label="Month <= 9.5\nmse = 0.0\nsamples = 6\nvalue = 1.9"] ;
780 -> 781 ;
782 [label="mse = 0.0\nsamples = 1\nvalue = 1.8"] ;
781 -> 782 ;
783 [label="Adj Close <= 1.2\nmse = 0.0\nsamples = 5\nvalue = 1.9"] ;
781 -> 783 ;
784 [label="Open <= 1.8\nmse = 0.0\nsamples = 4\nvalue = 1.9"] ;
783 -> 784 ;
785 [label="mse = 0.0\nsamples = 1\nvalue = 1.9"] ;
784 -> 785 ;
786 [label="Adj Close <= 1.2\nmse = 0.0\nsamples = 3\nvalue = 1.9"] ;
784 -> 786 ;
787 [label="mse = 0.0\nsamples = 2\nvalue = 1.9"] ;
786 -> 787 ;
788 [label="mse = 0.0\nsamples = 1\nvalue = 1.9"] ;
786 -> 788 ;
789 [label="mse = 0.0\nsamples = 1\nvalue = 1.9"] ;
783 -> 789 ;
790 [label="Open <= 1.9\nmse = 0.0\nsamples = 5\nvalue = 1.9"] ;
780 -> 790 ;
791 [label="mse = 0.0\nsamples = 1\nvalue = 1.9"] ;
790 -> 791 ;
792 [label="Adj Close <= 1.2\nmse = 0.0\nsamples = 4\nvalue = 1.9"] ;
790 -> 792 ;
793 [label="Adj Close <= 1.2\nmse = 0.0\nsamples = 3\nvalue = 1.9"] ;
792 -> 793 ;
794 [label="mse = 0.0\nsamples = 2\nvalue = 1.9"] ;
793 -> 794 ;
795 [label="mse = 0.0\nsamples = 1\nvalue = 1.9"] ;
793 -> 795 ;
796 [label="mse = 0.0\nsamples = 1\nvalue = 1.9"] ;
792 -> 796 ;
797 [label="Adj Close <= 1.4\nmse = 0.0\nsamples = 47\nvalue = 2.2"] ;
723 -> 797 ;
798 [label="Low <= 2.0\nmse = 0.0\nsamples = 13\nvalue = 2.1"] ;
797 -> 798 ;
799 [label="High <= 2.0\nmse = 0.0\nsamples = 7\nvalue = 2.0"] ;
798 -> 799 ;
800 [label="Adj Close <= 1.3\nmse = 0.0\nsamples = 2\nvalue = 2.0"] ;
799 -> 800 ;
801 [label="mse = 0.0\nsamples = 1\nvalue = 2.0"] ;
800 -> 801 ;
802 [label="mse = 0.0\nsamples = 1\nvalue = 2.0"] ;
800 -> 802 ;
803 [label="Adj Close <= 1.3\nmse = 0.0\nsamples = 5\nvalue = 2.0"] ;
799 -> 803 ;
804 [label="Low <= 2.0\nmse = 0.0\nsamples = 3\nvalue = 2.0"] ;
803 -> 804 ;
805 [label="Day <= 20.5\nmse = 0.0\nsamples = 2\nvalue = 2.0"] ;
804 -> 805 ;
806 [label="mse = 0.0\nsamples = 1\nvalue = 2.0"] ;
805 -> 806 ;
807 [label="mse = 0.0\nsamples = 1\nvalue = 2.0"] ;
805 -> 807 ;
808 [label="mse = 0.0\nsamples = 1\nvalue = 2.0"] ;
804 -> 808 ;
809 [label="mse = 0.0\nsamples = 2\nvalue = 2.0"] ;
803 -> 809 ;
810 [label="Adj Close <= 1.3\nmse = 0.0\nsamples = 6\nvalue = 2.1"] ;
798 -> 810 ;
811 [label="Day <= 11.5\nmse = 0.0\nsamples = 2\nvalue = 2.1"] ;
810 -> 811 ;
812 [label="mse = 0.0\nsamples = 1\nvalue = 2.1"] ;
811 -> 812 ;
813 [label="mse = 0.0\nsamples = 1\nvalue = 2.1"] ;
811 -> 813 ;
814 [label="Volume <= 25542400.0\nmse = 0.0\nsamples = 4\nvalue = 2.1"] ;
810 -> 814 ;
815 [label="mse = 0.0\nsamples = 1\nvalue = 2.1"] ;
814 -> 815 ;
816 [label="mse = 0.0\nsamples = 3\nvalue = 2.1"] ;
814 -> 816 ;
817 [label="Adj Close <= 1.4\nmse = 0.0\nsamples = 34\nvalue = 2.2"] ;
797 -> 817 ;
818 [label="Adj Close <= 1.4\nmse = 0.0\nsamples = 11\nvalue = 2.2"] ;
817 -> 818 ;
819 [label="Open <= 2.1\nmse = 0.0\nsamples = 4\nvalue = 2.1"] ;
818 -> 819 ;
820 [label="Adj Close <= 1.4\nmse = 0.0\nsamples = 2\nvalue = 2.1"] ;
819 -> 820 ;
821 [label="mse = 0.0\nsamples = 1\nvalue = 2.1"] ;
820 -> 821 ;
822 [label="mse = 0.0\nsamples = 1\nvalue = 2.1"] ;
820 -> 822 ;
823 [label="mse = 0.0\nsamples = 2\nvalue = 2.2"] ;
819 -> 823 ;
824 [label="Adj Close <= 1.4\nmse = 0.0\nsamples = 7\nvalue = 2.2"] ;
818 -> 824 ;
825 [label="Day <= 18.5\nmse = 0.0\nsamples = 4\nvalue = 2.2"] ;
824 -> 825 ;
826 [label="mse = 0.0\nsamples = 2\nvalue = 2.2"] ;
825 -> 826 ;
827 [label="mse = 0.0\nsamples = 2\nvalue = 2.2"] ;
825 -> 827 ;
828 [label="Day <= 7.5\nmse = 0.0\nsamples = 3\nvalue = 2.2"] ;
824 -> 828 ;
829 [label="mse = 0.0\nsamples = 1\nvalue = 2.2"] ;
828 -> 829 ;
830 [label="mse = 0.0\nsamples = 2\nvalue = 2.2"] ;
828 -> 830 ;
831 [label="Adj Close <= 1.4\nmse = 0.0\nsamples = 23\nvalue = 2.2"] ;
817 -> 831 ;
832 [label="Adj Close <= 1.4\nmse = 0.0\nsamples = 13\nvalue = 2.2"] ;
831 -> 832 ;
833 [label="Adj Close <= 1.4\nmse = 0.0\nsamples = 6\nvalue = 2.2"] ;
832 -> 833 ;
834 [label="Open <= 2.2\nmse = 0.0\nsamples = 3\nvalue = 2.2"] ;
833 -> 834 ;
835 [label="Open <= 2.2\nmse = 0.0\nsamples = 2\nvalue = 2.2"] ;
834 -> 835 ;
836 [label="mse = 0.0\nsamples = 1\nvalue = 2.2"] ;
835 -> 836 ;
837 [label="mse = 0.0\nsamples = 1\nvalue = 2.2"] ;
835 -> 837 ;
838 [label="mse = 0.0\nsamples = 1\nvalue = 2.2"] ;
834 -> 838 ;
839 [label="Open <= 2.2\nmse = 0.0\nsamples = 3\nvalue = 2.2"] ;
833 -> 839 ;
840 [label="High <= 2.2\nmse = 0.0\nsamples = 2\nvalue = 2.2"] ;
839 -> 840 ;
841 [label="mse = 0.0\nsamples = 1\nvalue = 2.2"] ;
840 -> 841 ;
842 [label="mse = 0.0\nsamples = 1\nvalue = 2.2"] ;
840 -> 842 ;
843 [label="mse = 0.0\nsamples = 1\nvalue = 2.2"] ;
839 -> 843 ;
844 [label="Adj Close <= 1.4\nmse = 0.0\nsamples = 7\nvalue = 2.2"] ;
832 -> 844 ;
845 [label="High <= 2.2\nmse = 0.0\nsamples = 4\nvalue = 2.2"] ;
844 -> 845 ;
846 [label="mse = 0.0\nsamples = 1\nvalue = 2.2"] ;
845 -> 846 ;
847 [label="Day <= 20.5\nmse = 0.0\nsamples = 3\nvalue = 2.2"] ;
845 -> 847 ;
848 [label="mse = 0.0\nsamples = 2\nvalue = 2.2"] ;
847 -> 848 ;
849 [label="mse = 0.0\nsamples = 1\nvalue = 2.2"] ;
847 -> 849 ;
850 [label="Low <= 2.2\nmse = 0.0\nsamples = 3\nvalue = 2.2"] ;
844 -> 850 ;
851 [label="mse = 0.0\nsamples = 1\nvalue = 2.2"] ;
850 -> 851 ;
852 [label="Volume <= 63956800.0\nmse = 0.0\nsamples = 2\nvalue = 2.2"] ;
850 -> 852 ;
853 [label="mse = 0.0\nsamples = 1\nvalue = 2.2"] ;
852 -> 853 ;
854 [label="mse = 0.0\nsamples = 1\nvalue = 2.2"] ;
852 -> 854 ;
855 [label="Adj Close <= 1.4\nmse = 0.0\nsamples = 10\nvalue = 2.3"] ;
831 -> 855 ;
856 [label="Month <= 6.5\nmse = 0.0\nsamples = 4\nvalue = 2.3"] ;
855 -> 856 ;
857 [label="Adj Close <= 1.4\nmse = 0.0\nsamples = 2\nvalue = 2.3"] ;
856 -> 857 ;
858 [label="mse = 0.0\nsamples = 1\nvalue = 2.3"] ;
857 -> 858 ;
859 [label="mse = 0.0\nsamples = 1\nvalue = 2.3"] ;
857 -> 859 ;
860 [label="mse = 0.0\nsamples = 2\nvalue = 2.3"] ;
856 -> 860 ;
861 [label="Adj Close <= 1.5\nmse = 0.0\nsamples = 6\nvalue = 2.3"] ;
855 -> 861 ;
862 [label="Low <= 2.2\nmse = 0.0\nsamples = 2\nvalue = 2.3"] ;
861 -> 862 ;
863 [label="mse = 0.0\nsamples = 1\nvalue = 2.3"] ;
862 -> 863 ;
864 [label="mse = 0.0\nsamples = 1\nvalue = 2.3"] ;
862 -> 864 ;
865 [label="Low <= 2.3\nmse = 0.0\nsamples = 4\nvalue = 2.3"] ;
861 -> 865 ;
866 [label="mse = 0.0\nsamples = 3\nvalue = 2.3"] ;
865 -> 866 ;
867 [label="mse = 0.0\nsamples = 1\nvalue = 2.3"] ;
865 -> 867 ;
868 [label="Adj Close <= 1.7\nmse = 0.0\nsamples = 300\nvalue = 2.6"] ;
722 -> 868 ;
869 [label="Adj Close <= 1.6\nmse = 0.0\nsamples = 200\nvalue = 2.5"] ;
868 -> 869 ;
870 [label="Adj Close <= 1.5\nmse = 0.0\nsamples = 73\nvalue = 2.4"] ;
869 -> 870 ;
871 [label="Adj Close <= 1.5\nmse = 0.0\nsamples = 37\nvalue = 2.4"] ;
870 -> 871 ;
872 [label="Adj Close <= 1.5\nmse = 0.0\nsamples = 15\nvalue = 2.3"] ;
871 -> 872 ;
873 [label="Adj Close <= 1.5\nmse = 0.0\nsamples = 9\nvalue = 2.3"] ;
872 -> 873 ;
874 [label="Day <= 20.5\nmse = 0.0\nsamples = 3\nvalue = 2.3"] ;
873 -> 874 ;
875 [label="mse = 0.0\nsamples = 1\nvalue = 2.3"] ;
874 -> 875 ;
876 [label="Month <= 8.0\nmse = 0.0\nsamples = 2\nvalue = 2.3"] ;
874 -> 876 ;
877 [label="mse = 0.0\nsamples = 1\nvalue = 2.3"] ;
876 -> 877 ;
878 [label="mse = 0.0\nsamples = 1\nvalue = 2.3"] ;
876 -> 878 ;
879 [label="Adj Close <= 1.5\nmse = 0.0\nsamples = 6\nvalue = 2.3"] ;
873 -> 879 ;
880 [label="mse = 0.0\nsamples = 3\nvalue = 2.3"] ;
879 -> 880 ;
881 [label="Open <= 2.3\nmse = 0.0\nsamples = 3\nvalue = 2.3"] ;
879 -> 881 ;
882 [label="mse = 0.0\nsamples = 1\nvalue = 2.3"] ;
881 -> 882 ;
883 [label="mse = 0.0\nsamples = 2\nvalue = 2.3"] ;
881 -> 883 ;
884 [label="Adj Close <= 1.5\nmse = 0.0\nsamples = 6\nvalue = 2.3"] ;
872 -> 884 ;
885 [label="Volume <= 32155200.0\nmse = 0.0\nsamples = 4\nvalue = 2.3"] ;
884 -> 885 ;
886 [label="mse = 0.0\nsamples = 1\nvalue = 2.3"] ;
885 -> 886 ;
887 [label="Year <= 1992.5\nmse = 0.0\nsamples = 3\nvalue = 2.3"] ;
885 -> 887 ;
888 [label="mse = 0.0\nsamples = 1\nvalue = 2.3"] ;
887 -> 888 ;
889 [label="mse = 0.0\nsamples = 2\nvalue = 2.3"] ;
887 -> 889 ;
890 [label="Month <= 6.5\nmse = 0.0\nsamples = 2\nvalue = 2.3"] ;
884 -> 890 ;
891 [label="mse = 0.0\nsamples = 1\nvalue = 2.3"] ;
890 -> 891 ;
892 [label="mse = 0.0\nsamples = 1\nvalue = 2.3"] ;
890 -> 892 ;
893 [label="Adj Close <= 1.5\nmse = 0.0\nsamples = 22\nvalue = 2.4"] ;
871 -> 893 ;
894 [label="Adj Close <= 1.5\nmse = 0.0\nsamples = 10\nvalue = 2.4"] ;
893 -> 894 ;
895 [label="Adj Close <= 1.5\nmse = 0.0\nsamples = 3\nvalue = 2.4"] ;
894 -> 895 ;
896 [label="Day <= 2.5\nmse = 0.0\nsamples = 2\nvalue = 2.4"] ;
895 -> 896 ;
897 [label="mse = 0.0\nsamples = 1\nvalue = 2.4"] ;
896 -> 897 ;
898 [label="mse = 0.0\nsamples = 1\nvalue = 2.4"] ;
896 -> 898 ;
899 [label="mse = 0.0\nsamples = 1\nvalue = 2.4"] ;
895 -> 899 ;
900 [label="Adj Close <= 1.5\nmse = 0.0\nsamples = 7\nvalue = 2.4"] ;
894 -> 900 ;
901 [label="Adj Close <= 1.5\nmse = 0.0\nsamples = 3\nvalue = 2.4"] ;
900 -> 901 ;
902 [label="mse = 0.0\nsamples = 2\nvalue = 2.4"] ;
901 -> 902 ;
903 [label="mse = 0.0\nsamples = 1\nvalue = 2.4"] ;
901 -> 903 ;
904 [label="mse = 0.0\nsamples = 4\nvalue = 2.4"] ;
900 -> 904 ;
905 [label="Adj Close <= 1.5\nmse = 0.0\nsamples = 12\nvalue = 2.4"] ;
893 -> 905 ;
906 [label="Volume <= 50571200.0\nmse = 0.0\nsamples = 4\nvalue = 2.4"] ;
905 -> 906 ;
907 [label="mse = 0.0\nsamples = 1\nvalue = 2.4"] ;
906 -> 907 ;
908 [label="mse = 0.0\nsamples = 3\nvalue = 2.4"] ;
906 -> 908 ;
909 [label="Adj Close <= 1.5\nmse = 0.0\nsamples = 8\nvalue = 2.4"] ;
905 -> 909 ;
910 [label="Adj Close <= 1.5\nmse = 0.0\nsamples = 3\nvalue = 2.4"] ;
909 -> 910 ;
911 [label="mse = 0.0\nsamples = 2\nvalue = 2.4"] ;
910 -> 911 ;
912 [label="mse = 0.0\nsamples = 1\nvalue = 2.4"] ;
910 -> 912 ;
913 [label="Adj Close <= 1.5\nmse = 0.0\nsamples = 5\nvalue = 2.4"] ;
909 -> 913 ;
914 [label="Adj Close <= 1.5\nmse = 0.0\nsamples = 3\nvalue = 2.4"] ;
913 -> 914 ;
915 [label="mse = 0.0\nsamples = 2\nvalue = 2.4"] ;
914 -> 915 ;
916 [label="mse = 0.0\nsamples = 1\nvalue = 2.4"] ;
914 -> 916 ;
917 [label="mse = 0.0\nsamples = 2\nvalue = 2.4"] ;
913 -> 917 ;
918 [label="Adj Close <= 1.6\nmse = 0.0\nsamples = 36\nvalue = 2.4"] ;
870 -> 918 ;
919 [label="Adj Close <= 1.5\nmse = 0.0\nsamples = 15\nvalue = 2.4"] ;
918 -> 919 ;
920 [label="Adj Close <= 1.5\nmse = 0.0\nsamples = 6\nvalue = 2.4"] ;
919 -> 920 ;
921 [label="Volume <= 37593600.0\nmse = 0.0\nsamples = 3\nvalue = 2.4"] ;
920 -> 921 ;
922 [label="mse = 0.0\nsamples = 1\nvalue = 2.4"] ;
921 -> 922 ;
923 [label="mse = 0.0\nsamples = 2\nvalue = 2.4"] ;
921 -> 923 ;
924 [label="Adj Close <= 1.5\nmse = 0.0\nsamples = 3\nvalue = 2.4"] ;
920 -> 924 ;
925 [label="Adj Close <= 1.5\nmse = 0.0\nsamples = 2\nvalue = 2.4"] ;
924 -> 925 ;
926 [label="mse = 0.0\nsamples = 1\nvalue = 2.4"] ;
925 -> 926 ;
927 [label="mse = 0.0\nsamples = 1\nvalue = 2.4"] ;
925 -> 927 ;
928 [label="mse = 0.0\nsamples = 1\nvalue = 2.4"] ;
924 -> 928 ;
929 [label="Adj Close <= 1.6\nmse = 0.0\nsamples = 9\nvalue = 2.4"] ;
919 -> 929 ;
930 [label="Adj Close <= 1.5\nmse = 0.0\nsamples = 6\nvalue = 2.4"] ;
929 -> 930 ;
931 [label="Adj Close <= 1.5\nmse = 0.0\nsamples = 4\nvalue = 2.4"] ;
930 -> 931 ;
932 [label="mse = 0.0\nsamples = 2\nvalue = 2.4"] ;
931 -> 932 ;
933 [label="mse = 0.0\nsamples = 2\nvalue = 2.4"] ;
931 -> 933 ;
934 [label="Day <= 20.5\nmse = 0.0\nsamples = 2\nvalue = 2.4"] ;
930 -> 934 ;
935 [label="mse = 0.0\nsamples = 1\nvalue = 2.4"] ;
934 -> 935 ;
936 [label="mse = 0.0\nsamples = 1\nvalue = 2.4"] ;
934 -> 936 ;
937 [label="Volume <= 81153600.0\nmse = 0.0\nsamples = 3\nvalue = 2.4"] ;
929 -> 937 ;
938 [label="mse = 0.0\nsamples = 2\nvalue = 2.4"] ;
937 -> 938 ;
939 [label="mse = 0.0\nsamples = 1\nvalue = 2.4"] ;
937 -> 939 ;
940 [label="Adj Close <= 1.6\nmse = 0.0\nsamples = 21\nvalue = 2.5"] ;
918 -> 940 ;
941 [label="Adj Close <= 1.6\nmse = 0.0\nsamples = 11\nvalue = 2.5"] ;
940 -> 941 ;
942 [label="Adj Close <= 1.6\nmse = 0.0\nsamples = 4\nvalue = 2.4"] ;
941 -> 942 ;
943 [label="Adj Close <= 1.6\nmse = 0.0\nsamples = 2\nvalue = 2.4"] ;
942 -> 943 ;
944 [label="mse = 0.0\nsamples = 1\nvalue = 2.4"] ;
943 -> 944 ;
945 [label="mse = 0.0\nsamples = 1\nvalue = 2.4"] ;
943 -> 945 ;
946 [label="Low <= 2.4\nmse = 0.0\nsamples = 2\nvalue = 2.5"] ;
942 -> 946 ;
947 [label="mse = 0.0\nsamples = 1\nvalue = 2.5"] ;
946 -> 947 ;
948 [label="mse = 0.0\nsamples = 1\nvalue = 2.5"] ;
946 -> 948 ;
949 [label="Adj Close <= 1.6\nmse = 0.0\nsamples = 7\nvalue = 2.5"] ;
941 -> 949 ;
950 [label="mse = 0.0\nsamples = 1\nvalue = 2.5"] ;
949 -> 950 ;
951 [label="Adj Close <= 1.6\nmse = 0.0\nsamples = 6\nvalue = 2.5"] ;
949 -> 951 ;
952 [label="mse = 0.0\nsamples = 4\nvalue = 2.5"] ;
951 -> 952 ;
953 [label="mse = 0.0\nsamples = 2\nvalue = 2.5"] ;
951 -> 953 ;
954 [label="Adj Close <= 1.6\nmse = 0.0\nsamples = 10\nvalue = 2.5"] ;
940 -> 954 ;
955 [label="Adj Close <= 1.6\nmse = 0.0\nsamples = 6\nvalue = 2.5"] ;
954 -> 955 ;
956 [label="mse = 0.0\nsamples = 4\nvalue = 2.5"] ;
955 -> 956 ;
957 [label="mse = 0.0\nsamples = 2\nvalue = 2.5"] ;
955 -> 957 ;
958 [label="Low <= 2.4\nmse = 0.0\nsamples = 4\nvalue = 2.5"] ;
954 -> 958 ;
959 [label="mse = 0.0\nsamples = 1\nvalue = 2.5"] ;
958 -> 959 ;
960 [label="Day <= 12.0\nmse = 0.0\nsamples = 3\nvalue = 2.5"] ;
958 -> 960 ;
961 [label="mse = 0.0\nsamples = 1\nvalue = 2.5"] ;
960 -> 961 ;
962 [label="mse = 0.0\nsamples = 2\nvalue = 2.5"] ;
960 -> 962 ;
963 [label="Adj Close <= 1.6\nmse = 0.0\nsamples = 127\nvalue = 2.6"] ;
869 -> 963 ;
964 [label="Adj Close <= 1.6\nmse = 0.0\nsamples = 63\nvalue = 2.5"] ;
963 -> 964 ;
965 [label="Adj Close <= 1.6\nmse = 0.0\nsamples = 44\nvalue = 2.5"] ;
964 -> 965 ;
966 [label="Adj Close <= 1.6\nmse = 0.0\nsamples = 23\nvalue = 2.5"] ;
965 -> 966 ;
967 [label="Adj Close <= 1.6\nmse = 0.0\nsamples = 14\nvalue = 2.5"] ;
966 -> 967 ;
968 [label="Open <= 2.5\nmse = 0.0\nsamples = 3\nvalue = 2.5"] ;
967 -> 968 ;
969 [label="mse = 0.0\nsamples = 2\nvalue = 2.5"] ;
968 -> 969 ;
970 [label="mse = 0.0\nsamples = 1\nvalue = 2.5"] ;
968 -> 970 ;
971 [label="Adj Close <= 1.6\nmse = 0.0\nsamples = 11\nvalue = 2.5"] ;
967 -> 971 ;
972 [label="mse = 0.0\nsamples = 8\nvalue = 2.5"] ;
971 -> 972 ;
973 [label="mse = 0.0\nsamples = 3\nvalue = 2.5"] ;
971 -> 973 ;
974 [label="Adj Close <= 1.6\nmse = 0.0\nsamples = 9\nvalue = 2.5"] ;
966 -> 974 ;
975 [label="Adj Close <= 1.6\nmse = 0.0\nsamples = 6\nvalue = 2.5"] ;
974 -> 975 ;
976 [label="mse = 0.0\nsamples = 3\nvalue = 2.5"] ;
975 -> 976 ;
977 [label="mse = 0.0\nsamples = 3\nvalue = 2.5"] ;
975 -> 977 ;
978 [label="mse = 0.0\nsamples = 3\nvalue = 2.5"] ;
974 -> 978 ;
979 [label="Adj Close <= 1.6\nmse = 0.0\nsamples = 21\nvalue = 2.5"] ;
965 -> 979 ;
980 [label="Adj Close <= 1.6\nmse = 0.0\nsamples = 10\nvalue = 2.5"] ;
979 -> 980 ;
981 [label="Adj Close <= 1.6\nmse = 0.0\nsamples = 6\nvalue = 2.5"] ;
980 -> 981 ;
982 [label="Year <= 1992.5\nmse = 0.0\nsamples = 3\nvalue = 2.5"] ;
981 -> 982 ;
983 [label="mse = 0.0\nsamples = 2\nvalue = 2.5"] ;
982 -> 983 ;
984 [label="mse = 0.0\nsamples = 1\nvalue = 2.5"] ;
982 -> 984 ;
985 [label="mse = 0.0\nsamples = 3\nvalue = 2.5"] ;
981 -> 985 ;
986 [label="Year <= 1992.5\nmse = 0.0\nsamples = 4\nvalue = 2.5"] ;
980 -> 986 ;
987 [label="mse = 0.0\nsamples = 1\nvalue = 2.5"] ;
986 -> 987 ;
988 [label="mse = 0.0\nsamples = 3\nvalue = 2.5"] ;
986 -> 988 ;
989 [label="Adj Close <= 1.6\nmse = 0.0\nsamples = 11\nvalue = 2.5"] ;
979 -> 989 ;
990 [label="mse = 0.0\nsamples = 4\nvalue = 2.5"] ;
989 -> 990 ;
991 [label="Year <= 1993.5\nmse = 0.0\nsamples = 7\nvalue = 2.5"] ;
989 -> 991 ;
992 [label="Open <= 2.5\nmse = 0.0\nsamples = 6\nvalue = 2.5"] ;
991 -> 992 ;
993 [label="mse = 0.0\nsamples = 1\nvalue = 2.5"] ;
992 -> 993 ;
994 [label="mse = 0.0\nsamples = 5\nvalue = 2.5"] ;
992 -> 994 ;
995 [label="mse = 0.0\nsamples = 1\nvalue = 2.5"] ;
991 -> 995 ;
996 [label="Adj Close <= 1.6\nmse = 0.0\nsamples = 19\nvalue = 2.6"] ;
964 -> 996 ;
997 [label="Adj Close <= 1.6\nmse = 0.0\nsamples = 12\nvalue = 2.6"] ;
996 -> 997 ;
998 [label="Volume <= 29758400.0\nmse = 0.0\nsamples = 5\nvalue = 2.6"] ;
997 -> 998 ;
999 [label="mse = 0.0\nsamples = 1\nvalue = 2.5"] ;
998 -> 999 ;
1000 [label="Open <= 2.5\nmse = 0.0\nsamples = 4\nvalue = 2.6"] ;
998 -> 1000 ;
1001 [label="mse = 0.0\nsamples = 2\nvalue = 2.6"] ;
1000 -> 1001 ;
1002 [label="mse = 0.0\nsamples = 2\nvalue = 2.6"] ;
1000 -> 1002 ;
1003 [label="Adj Close <= 1.6\nmse = 0.0\nsamples = 7\nvalue = 2.6"] ;
997 -> 1003 ;
1004 [label="Adj Close <= 1.6\nmse = 0.0\nsamples = 5\nvalue = 2.6"] ;
1003 -> 1004 ;
1005 [label="mse = 0.0\nsamples = 1\nvalue = 2.6"] ;
1004 -> 1005 ;
1006 [label="mse = 0.0\nsamples = 4\nvalue = 2.6"] ;
1004 -> 1006 ;
1007 [label="Open <= 2.6\nmse = 0.0\nsamples = 2\nvalue = 2.6"] ;
1003 -> 1007 ;
1008 [label="mse = 0.0\nsamples = 1\nvalue = 2.6"] ;
1007 -> 1008 ;
1009 [label="mse = 0.0\nsamples = 1\nvalue = 2.6"] ;
1007 -> 1009 ;
1010 [label="Adj Close <= 1.6\nmse = 0.0\nsamples = 7\nvalue = 2.6"] ;
996 -> 1010 ;
1011 [label="mse = 0.0\nsamples = 1\nvalue = 2.6"] ;
1010 -> 1011 ;
1012 [label="Adj Close <= 1.6\nmse = 0.0\nsamples = 6\nvalue = 2.6"] ;
1010 -> 1012 ;
1013 [label="mse = 0.0\nsamples = 5\nvalue = 2.6"] ;
1012 -> 1013 ;
1014 [label="mse = 0.0\nsamples = 1\nvalue = 2.6"] ;
1012 -> 1014 ;
1015 [label="Adj Close <= 1.7\nmse = 0.0\nsamples = 64\nvalue = 2.6"] ;
963 -> 1015 ;
1016 [label="Adj Close <= 1.7\nmse = 0.0\nsamples = 25\nvalue = 2.6"] ;
1015 -> 1016 ;
1017 [label="Adj Close <= 1.7\nmse = 0.0\nsamples = 15\nvalue = 2.6"] ;
1016 -> 1017 ;
1018 [label="Adj Close <= 1.7\nmse = 0.0\nsamples = 6\nvalue = 2.6"] ;
1017 -> 1018 ;
1019 [label="Adj Close <= 1.7\nmse = 0.0\nsamples = 4\nvalue = 2.6"] ;
1018 -> 1019 ;
1020 [label="mse = 0.0\nsamples = 2\nvalue = 2.6"] ;
1019 -> 1020 ;
1021 [label="Low <= 2.5\nmse = 0.0\nsamples = 2\nvalue = 2.6"] ;
1019 -> 1021 ;
1022 [label="mse = 0.0\nsamples = 1\nvalue = 2.6"] ;
1021 -> 1022 ;
1023 [label="mse = 0.0\nsamples = 1\nvalue = 2.6"] ;
1021 -> 1023 ;
1024 [label="mse = 0.0\nsamples = 2\nvalue = 2.6"] ;
1018 -> 1024 ;
1025 [label="Adj Close <= 1.7\nmse = 0.0\nsamples = 9\nvalue = 2.6"] ;
1017 -> 1025 ;
1026 [label="mse = 0.0\nsamples = 5\nvalue = 2.6"] ;
1025 -> 1026 ;
1027 [label="Adj Close <= 1.7\nmse = 0.0\nsamples = 4\nvalue = 2.6"] ;
1025 -> 1027 ;
1028 [label="mse = 0.0\nsamples = 2\nvalue = 2.6"] ;
1027 -> 1028 ;
1029 [label="mse = 0.0\nsamples = 2\nvalue = 2.6"] ;
1027 -> 1029 ;
1030 [label="Adj Close <= 1.7\nmse = 0.0\nsamples = 10\nvalue = 2.6"] ;
1016 -> 1030 ;
1031 [label="High <= 2.7\nmse = 0.0\nsamples = 3\nvalue = 2.6"] ;
1030 -> 1031 ;
1032 [label="mse = 0.0\nsamples = 2\nvalue = 2.6"] ;
1031 -> 1032 ;
1033 [label="mse = 0.0\nsamples = 1\nvalue = 2.6"] ;
1031 -> 1033 ;
1034 [label="Adj Close <= 1.7\nmse = 0.0\nsamples = 7\nvalue = 2.6"] ;
1030 -> 1034 ;
1035 [label="Open <= 2.6\nmse = 0.0\nsamples = 5\nvalue = 2.6"] ;
1034 -> 1035 ;
1036 [label="Open <= 2.6\nmse = 0.0\nsamples = 3\nvalue = 2.6"] ;
1035 -> 1036 ;
1037 [label="mse = 0.0\nsamples = 2\nvalue = 2.6"] ;
1036 -> 1037 ;
1038 [label="mse = 0.0\nsamples = 1\nvalue = 2.6"] ;
1036 -> 1038 ;
1039 [label="mse = 0.0\nsamples = 2\nvalue = 2.6"] ;
1035 -> 1039 ;
1040 [label="mse = 0.0\nsamples = 2\nvalue = 2.6"] ;
1034 -> 1040 ;
1041 [label="Adj Close <= 1.7\nmse = 0.0\nsamples = 39\nvalue = 2.7"] ;
1015 -> 1041 ;
1042 [label="Adj Close <= 1.7\nmse = 0.0\nsamples = 23\nvalue = 2.6"] ;
1041 -> 1042 ;
1043 [label="Adj Close <= 1.7\nmse = 0.0\nsamples = 9\nvalue = 2.6"] ;
1042 -> 1043 ;
1044 [label="Day <= 7.5\nmse = 0.0\nsamples = 5\nvalue = 2.6"] ;
1043 -> 1044 ;
1045 [label="mse = 0.0\nsamples = 1\nvalue = 2.6"] ;
1044 -> 1045 ;
1046 [label="mse = 0.0\nsamples = 4\nvalue = 2.6"] ;
1044 -> 1046 ;
1047 [label="Adj Close <= 1.7\nmse = 0.0\nsamples = 4\nvalue = 2.6"] ;
1043 -> 1047 ;
1048 [label="mse = 0.0\nsamples = 1\nvalue = 2.6"] ;
1047 -> 1048 ;
1049 [label="mse = 0.0\nsamples = 3\nvalue = 2.6"] ;
1047 -> 1049 ;
1050 [label="Adj Close <= 1.7\nmse = 0.0\nsamples = 14\nvalue = 2.7"] ;
1042 -> 1050 ;
1051 [label="Day <= 11.5\nmse = 0.0\nsamples = 5\nvalue = 2.6"] ;
1050 -> 1051 ;
1052 [label="mse = 0.0\nsamples = 2\nvalue = 2.6"] ;
1051 -> 1052 ;
1053 [label="mse = 0.0\nsamples = 3\nvalue = 2.6"] ;
1051 -> 1053 ;
1054 [label="Volume <= 30916800.0\nmse = 0.0\nsamples = 9\nvalue = 2.7"] ;
1050 -> 1054 ;
1055 [label="mse = 0.0\nsamples = 1\nvalue = 2.7"] ;
1054 -> 1055 ;
1056 [label="Year <= 1992.5\nmse = 0.0\nsamples = 8\nvalue = 2.7"] ;
1054 -> 1056 ;
1057 [label="mse = 0.0\nsamples = 1\nvalue = 2.7"] ;
1056 -> 1057 ;
1058 [label="mse = 0.0\nsamples = 7\nvalue = 2.7"] ;
1056 -> 1058 ;
1059 [label="Adj Close <= 1.7\nmse = 0.0\nsamples = 16\nvalue = 2.7"] ;
1041 -> 1059 ;
1060 [label="Adj Close <= 1.7\nmse = 0.0\nsamples = 8\nvalue = 2.7"] ;
1059 -> 1060 ;
1061 [label="Low <= 2.6\nmse = 0.0\nsamples = 3\nvalue = 2.7"] ;
1060 -> 1061 ;
1062 [label="mse = 0.0\nsamples = 2\nvalue = 2.7"] ;
1061 -> 1062 ;
1063 [label="mse = 0.0\nsamples = 1\nvalue = 2.7"] ;
1061 -> 1063 ;
1064 [label="Adj Close <= 1.7\nmse = 0.0\nsamples = 5\nvalue = 2.7"] ;
1060 -> 1064 ;
1065 [label="mse = 0.0\nsamples = 2\nvalue = 2.7"] ;
1064 -> 1065 ;
1066 [label="Adj Close <= 1.7\nmse = 0.0\nsamples = 3\nvalue = 2.7"] ;
1064 -> 1066 ;
1067 [label="mse = 0.0\nsamples = 1\nvalue = 2.7"] ;
1066 -> 1067 ;
1068 [label="mse = 0.0\nsamples = 2\nvalue = 2.7"] ;
1066 -> 1068 ;
1069 [label="Adj Close <= 1.7\nmse = 0.0\nsamples = 8\nvalue = 2.7"] ;
1059 -> 1069 ;
1070 [label="mse = 0.0\nsamples = 2\nvalue = 2.7"] ;
1069 -> 1070 ;
1071 [label="Day <= 13.5\nmse = 0.0\nsamples = 6\nvalue = 2.7"] ;
1069 -> 1071 ;
1072 [label="mse = 0.0\nsamples = 3\nvalue = 2.7"] ;
1071 -> 1072 ;
1073 [label="Adj Close <= 1.7\nmse = 0.0\nsamples = 3\nvalue = 2.7"] ;
1071 -> 1073 ;
1074 [label="mse = 0.0\nsamples = 1\nvalue = 2.7"] ;
1073 -> 1074 ;
1075 [label="mse = 0.0\nsamples = 2\nvalue = 2.7"] ;
1073 -> 1075 ;
1076 [label="Adj Close <= 1.8\nmse = 0.0\nsamples = 100\nvalue = 2.8"] ;
868 -> 1076 ;
1077 [label="Adj Close <= 1.8\nmse = 0.0\nsamples = 59\nvalue = 2.8"] ;
1076 -> 1077 ;
1078 [label="Adj Close <= 1.7\nmse = 0.0\nsamples = 31\nvalue = 2.7"] ;
1077 -> 1078 ;
1079 [label="Adj Close <= 1.7\nmse = 0.0\nsamples = 12\nvalue = 2.7"] ;
1078 -> 1079 ;
1080 [label="Adj Close <= 1.7\nmse = 0.0\nsamples = 8\nvalue = 2.7"] ;
1079 -> 1080 ;
1081 [label="Volume <= 44478400.0\nmse = 0.0\nsamples = 3\nvalue = 2.7"] ;
1080 -> 1081 ;
1082 [label="mse = 0.0\nsamples = 1\nvalue = 2.7"] ;
1081 -> 1082 ;
1083 [label="High <= 2.7\nmse = 0.0\nsamples = 2\nvalue = 2.7"] ;
1081 -> 1083 ;
1084 [label="mse = 0.0\nsamples = 1\nvalue = 2.7"] ;
1083 -> 1084 ;
1085 [label="mse = 0.0\nsamples = 1\nvalue = 2.7"] ;
1083 -> 1085 ;
1086 [label="Month <= 2.0\nmse = 0.0\nsamples = 5\nvalue = 2.7"] ;
1080 -> 1086 ;
1087 [label="mse = 0.0\nsamples = 2\nvalue = 2.7"] ;
1086 -> 1087 ;
1088 [label="mse = 0.0\nsamples = 3\nvalue = 2.7"] ;
1086 -> 1088 ;
1089 [label="Adj Close <= 1.7\nmse = 0.0\nsamples = 4\nvalue = 2.7"] ;
1079 -> 1089 ;
1090 [label="Open <= 2.7\nmse = 0.0\nsamples = 3\nvalue = 2.7"] ;
1089 -> 1090 ;
1091 [label="mse = 0.0\nsamples = 2\nvalue = 2.7"] ;
1090 -> 1091 ;
1092 [label="mse = 0.0\nsamples = 1\nvalue = 2.7"] ;
1090 -> 1092 ;
1093 [label="mse = 0.0\nsamples = 1\nvalue = 2.7"] ;
1089 -> 1093 ;
1094 [label="Adj Close <= 1.7\nmse = 0.0\nsamples = 19\nvalue = 2.7"] ;
1078 -> 1094 ;
1095 [label="Adj Close <= 1.7\nmse = 0.0\nsamples = 11\nvalue = 2.7"] ;
1094 -> 1095 ;
1096 [label="Adj Close <= 1.7\nmse = 0.0\nsamples = 8\nvalue = 2.7"] ;
1095 -> 1096 ;
1097 [label="mse = 0.0\nsamples = 6\nvalue = 2.7"] ;
1096 -> 1097 ;
1098 [label="mse = 0.0\nsamples = 2\nvalue = 2.7"] ;
1096 -> 1098 ;
1099 [label="Adj Close <= 1.7\nmse = 0.0\nsamples = 3\nvalue = 2.7"] ;
1095 -> 1099 ;
1100 [label="mse = 0.0\nsamples = 2\nvalue = 2.7"] ;
1099 -> 1100 ;
1101 [label="mse = 0.0\nsamples = 1\nvalue = 2.7"] ;
1099 -> 1101 ;
1102 [label="Adj Close <= 1.7\nmse = 0.0\nsamples = 8\nvalue = 2.7"] ;
1094 -> 1102 ;
1103 [label="Adj Close <= 1.7\nmse = 0.0\nsamples = 3\nvalue = 2.7"] ;
1102 -> 1103 ;
1104 [label="mse = 0.0\nsamples = 2\nvalue = 2.7"] ;
1103 -> 1104 ;
1105 [label="mse = 0.0\nsamples = 1\nvalue = 2.7"] ;
1103 -> 1105 ;
1106 [label="Adj Close <= 1.8\nmse = 0.0\nsamples = 5\nvalue = 2.7"] ;
1102 -> 1106 ;
1107 [label="Day <= 21.0\nmse = 0.0\nsamples = 2\nvalue = 2.7"] ;
1106 -> 1107 ;
1108 [label="mse = 0.0\nsamples = 1\nvalue = 2.7"] ;
1107 -> 1108 ;
1109 [label="mse = 0.0\nsamples = 1\nvalue = 2.7"] ;
1107 -> 1109 ;
1110 [label="mse = 0.0\nsamples = 3\nvalue = 2.8"] ;
1106 -> 1110 ;
1111 [label="Adj Close <= 1.8\nmse = 0.0\nsamples = 28\nvalue = 2.8"] ;
1077 -> 1111 ;
1112 [label="Adj Close <= 1.8\nmse = 0.0\nsamples = 14\nvalue = 2.8"] ;
1111 -> 1112 ;
1113 [label="Adj Close <= 1.8\nmse = 0.0\nsamples = 8\nvalue = 2.8"] ;
1112 -> 1113 ;
1114 [label="Adj Close <= 1.8\nmse = 0.0\nsamples = 5\nvalue = 2.8"] ;
1113 -> 1114 ;
1115 [label="mse = 0.0\nsamples = 1\nvalue = 2.8"] ;
1114 -> 1115 ;
1116 [label="mse = 0.0\nsamples = 4\nvalue = 2.8"] ;
1114 -> 1116 ;
1117 [label="Day <= 26.5\nmse = 0.0\nsamples = 3\nvalue = 2.8"] ;
1113 -> 1117 ;
1118 [label="mse = 0.0\nsamples = 2\nvalue = 2.8"] ;
1117 -> 1118 ;
1119 [label="mse = 0.0\nsamples = 1\nvalue = 2.8"] ;
1117 -> 1119 ;
1120 [label="Adj Close <= 1.8\nmse = 0.0\nsamples = 6\nvalue = 2.8"] ;
1112 -> 1120 ;
1121 [label="mse = 0.0\nsamples = 3\nvalue = 2.8"] ;
1120 -> 1121 ;
1122 [label="Low <= 2.8\nmse = 0.0\nsamples = 3\nvalue = 2.8"] ;
1120 -> 1122 ;
1123 [label="mse = 0.0\nsamples = 2\nvalue = 2.8"] ;
1122 -> 1123 ;
1124 [label="mse = 0.0\nsamples = 1\nvalue = 2.8"] ;
1122 -> 1124 ;
1125 [label="Adj Close <= 1.8\nmse = 0.0\nsamples = 14\nvalue = 2.8"] ;
1111 -> 1125 ;
1126 [label="Open <= 2.8\nmse = 0.0\nsamples = 7\nvalue = 2.8"] ;
1125 -> 1126 ;
1127 [label="Month <= 7.0\nmse = 0.0\nsamples = 3\nvalue = 2.8"] ;
1126 -> 1127 ;
1128 [label="mse = 0.0\nsamples = 1\nvalue = 2.8"] ;
1127 -> 1128 ;
1129 [label="mse = 0.0\nsamples = 2\nvalue = 2.8"] ;
1127 -> 1129 ;
1130 [label="mse = 0.0\nsamples = 4\nvalue = 2.8"] ;
1126 -> 1130 ;
1131 [label="Adj Close <= 1.8\nmse = 0.0\nsamples = 7\nvalue = 2.8"] ;
1125 -> 1131 ;
1132 [label="mse = 0.0\nsamples = 1\nvalue = 2.8"] ;
1131 -> 1132 ;
1133 [label="Adj Close <= 1.8\nmse = 0.0\nsamples = 6\nvalue = 2.8"] ;
1131 -> 1133 ;
1134 [label="Low <= 2.8\nmse = 0.0\nsamples = 3\nvalue = 2.8"] ;
1133 -> 1134 ;
1135 [label="mse = 0.0\nsamples = 1\nvalue = 2.8"] ;
1134 -> 1135 ;
1136 [label="mse = 0.0\nsamples = 2\nvalue = 2.8"] ;
1134 -> 1136 ;
1137 [label="Low <= 2.8\nmse = 0.0\nsamples = 3\nvalue = 2.9"] ;
1133 -> 1137 ;
1138 [label="mse = 0.0\nsamples = 1\nvalue = 2.9"] ;
1137 -> 1138 ;
1139 [label="mse = 0.0\nsamples = 2\nvalue = 2.9"] ;
1137 -> 1139 ;
1140 [label="Adj Close <= 1.9\nmse = 0.0\nsamples = 41\nvalue = 3.0"] ;
1076 -> 1140 ;
1141 [label="Adj Close <= 1.9\nmse = 0.0\nsamples = 25\nvalue = 2.9"] ;
1140 -> 1141 ;
1142 [label="Adj Close <= 1.8\nmse = 0.0\nsamples = 16\nvalue = 2.9"] ;
1141 -> 1142 ;
1143 [label="Adj Close <= 1.8\nmse = 0.0\nsamples = 8\nvalue = 2.9"] ;
1142 -> 1143 ;
1144 [label="Low <= 2.9\nmse = 0.0\nsamples = 4\nvalue = 2.9"] ;
1143 -> 1144 ;
1145 [label="Day <= 4.5\nmse = 0.0\nsamples = 3\nvalue = 2.9"] ;
1144 -> 1145 ;
1146 [label="mse = 0.0\nsamples = 1\nvalue = 2.9"] ;
1145 -> 1146 ;
1147 [label="mse = 0.0\nsamples = 2\nvalue = 2.9"] ;
1145 -> 1147 ;
1148 [label="mse = 0.0\nsamples = 1\nvalue = 2.9"] ;
1144 -> 1148 ;
1149 [label="mse = 0.0\nsamples = 4\nvalue = 2.9"] ;
1143 -> 1149 ;
1150 [label="Adj Close <= 1.9\nmse = 0.0\nsamples = 8\nvalue = 2.9"] ;
1142 -> 1150 ;
1151 [label="Low <= 2.9\nmse = 0.0\nsamples = 2\nvalue = 2.9"] ;
1150 -> 1151 ;
1152 [label="mse = 0.0\nsamples = 1\nvalue = 2.9"] ;
1151 -> 1152 ;
1153 [label="mse = 0.0\nsamples = 1\nvalue = 2.9"] ;
1151 -> 1153 ;
1154 [label="Adj Close <= 1.9\nmse = 0.0\nsamples = 6\nvalue = 2.9"] ;
1150 -> 1154 ;
1155 [label="Low <= 2.9\nmse = 0.0\nsamples = 3\nvalue = 2.9"] ;
1154 -> 1155 ;
1156 [label="mse = 0.0\nsamples = 2\nvalue = 2.9"] ;
1155 -> 1156 ;
1157 [label="mse = 0.0\nsamples = 1\nvalue = 2.9"] ;
1155 -> 1157 ;
1158 [label="Month <= 11.5\nmse = 0.0\nsamples = 3\nvalue = 2.9"] ;
1154 -> 1158 ;
1159 [label="mse = 0.0\nsamples = 2\nvalue = 2.9"] ;
1158 -> 1159 ;
1160 [label="mse = 0.0\nsamples = 1\nvalue = 2.9"] ;
1158 -> 1160 ;
1161 [label="Low <= 2.9\nmse = 0.0\nsamples = 9\nvalue = 3.0"] ;
1141 -> 1161 ;
1162 [label="Day <= 26.0\nmse = 0.0\nsamples = 3\nvalue = 2.9"] ;
1161 -> 1162 ;
1163 [label="mse = 0.0\nsamples = 2\nvalue = 2.9"] ;
1162 -> 1163 ;
1164 [label="mse = 0.0\nsamples = 1\nvalue = 2.9"] ;
1162 -> 1164 ;
1165 [label="Adj Close <= 1.9\nmse = 0.0\nsamples = 6\nvalue = 3.0"] ;
1161 -> 1165 ;
1166 [label="Adj Close <= 1.9\nmse = 0.0\nsamples = 3\nvalue = 3.0"] ;
1165 -> 1166 ;
1167 [label="mse = 0.0\nsamples = 1\nvalue = 2.9"] ;
1166 -> 1167 ;
1168 [label="mse = 0.0\nsamples = 2\nvalue = 3.0"] ;
1166 -> 1168 ;
1169 [label="Month <= 4.5\nmse = 0.0\nsamples = 3\nvalue = 3.0"] ;
1165 -> 1169 ;
1170 [label="mse = 0.0\nsamples = 1\nvalue = 3.0"] ;
1169 -> 1170 ;
1171 [label="mse = 0.0\nsamples = 2\nvalue = 3.0"] ;
1169 -> 1171 ;
1172 [label="High <= 3.2\nmse = 0.0\nsamples = 16\nvalue = 3.1"] ;
1140 -> 1172 ;
1173 [label="Adj Close <= 1.9\nmse = 0.0\nsamples = 9\nvalue = 3.0"] ;
1172 -> 1173 ;
1174 [label="Low <= 3.0\nmse = 0.0\nsamples = 6\nvalue = 3.0"] ;
1173 -> 1174 ;
1175 [label="High <= 3.1\nmse = 0.0\nsamples = 4\nvalue = 3.0"] ;
1174 -> 1175 ;
1176 [label="Low <= 3.0\nmse = 0.0\nsamples = 2\nvalue = 3.0"] ;
1175 -> 1176 ;
1177 [label="mse = 0.0\nsamples = 1\nvalue = 3.0"] ;
1176 -> 1177 ;
1178 [label="mse = 0.0\nsamples = 1\nvalue = 3.0"] ;
1176 -> 1178 ;
1179 [label="mse = 0.0\nsamples = 2\nvalue = 3.0"] ;
1175 -> 1179 ;
1180 [label="Volume <= 63483200.0\nmse = 0.0\nsamples = 2\nvalue = 3.0"] ;
1174 -> 1180 ;
1181 [label="mse = 0.0\nsamples = 1\nvalue = 3.0"] ;
1180 -> 1181 ;
1182 [label="mse = 0.0\nsamples = 1\nvalue = 3.0"] ;
1180 -> 1182 ;
1183 [label="Adj Close <= 2.0\nmse = 0.0\nsamples = 3\nvalue = 3.1"] ;
1173 -> 1183 ;
1184 [label="mse = 0.0\nsamples = 1\nvalue = 3.1"] ;
1183 -> 1184 ;
1185 [label="Month <= 6.0\nmse = 0.0\nsamples = 2\nvalue = 3.1"] ;
1183 -> 1185 ;
1186 [label="mse = 0.0\nsamples = 1\nvalue = 3.1"] ;
1185 -> 1186 ;
1187 [label="mse = 0.0\nsamples = 1\nvalue = 3.1"] ;
1185 -> 1187 ;
1188 [label="Volume <= 53872000.0\nmse = 0.0\nsamples = 7\nvalue = 3.2"] ;
1172 -> 1188 ;
1189 [label="Volume <= 52474400.0\nmse = 0.0\nsamples = 2\nvalue = 3.2"] ;
1188 -> 1189 ;
1190 [label="mse = 0.0\nsamples = 1\nvalue = 3.2"] ;
1189 -> 1190 ;
1191 [label="mse = 0.0\nsamples = 1\nvalue = 3.2"] ;
1189 -> 1191 ;
1192 [label="Adj Close <= 2.0\nmse = 0.0\nsamples = 5\nvalue = 3.2"] ;
1188 -> 1192 ;
1193 [label="mse = 0.0\nsamples = 1\nvalue = 3.1"] ;
1192 -> 1193 ;
1194 [label="Adj Close <= 2.0\nmse = 0.0\nsamples = 4\nvalue = 3.2"] ;
1192 -> 1194 ;
1195 [label="mse = 0.0\nsamples = 1\nvalue = 3.1"] ;
1194 -> 1195 ;
1196 [label="Open <= 3.1\nmse = 0.0\nsamples = 3\nvalue = 3.2"] ;
1194 -> 1196 ;
1197 [label="mse = 0.0\nsamples = 2\nvalue = 3.2"] ;
1196 -> 1197 ;
1198 [label="mse = 0.0\nsamples = 1\nvalue = 3.2"] ;
1196 -> 1198 ;
1199 [label="Adj Close <= 3.3\nmse = 2.0\nsamples = 281\nvalue = 5.2"] ;
3 -> 1199 ;
1200 [label="High <= 4.2\nmse = 0.2\nsamples = 118\nvalue = 3.9"] ;
1199 -> 1200 ;
1201 [label="Adj Close <= 2.3\nmse = 0.1\nsamples = 93\nvalue = 3.6"] ;
1200 -> 1201 ;
1202 [label="Adj Close <= 2.2\nmse = 0.0\nsamples = 42\nvalue = 3.4"] ;
1201 -> 1202 ;
1203 [label="Low <= 3.3\nmse = 0.0\nsamples = 15\nvalue = 3.3"] ;
1202 -> 1203 ;
1204 [label="Adj Close <= 2.1\nmse = 0.0\nsamples = 12\nvalue = 3.3"] ;
1203 -> 1204 ;
1205 [label="Adj Close <= 2.1\nmse = 0.0\nsamples = 6\nvalue = 3.3"] ;
1204 -> 1205 ;
1206 [label="Adj Close <= 2.1\nmse = 0.0\nsamples = 3\nvalue = 3.3"] ;
1205 -> 1206 ;
1207 [label="mse = 0.0\nsamples = 1\nvalue = 3.2"] ;
1206 -> 1207 ;
1208 [label="mse = 0.0\nsamples = 2\nvalue = 3.3"] ;
1206 -> 1208 ;
1209 [label="Day <= 26.0\nmse = 0.0\nsamples = 3\nvalue = 3.3"] ;
1205 -> 1209 ;
1210 [label="mse = 0.0\nsamples = 2\nvalue = 3.3"] ;
1209 -> 1210 ;
1211 [label="mse = 0.0\nsamples = 1\nvalue = 3.3"] ;
1209 -> 1211 ;
1212 [label="Adj Close <= 2.1\nmse = 0.0\nsamples = 6\nvalue = 3.3"] ;
1204 -> 1212 ;
1213 [label="Open <= 3.3\nmse = 0.0\nsamples = 3\nvalue = 3.3"] ;
1212 -> 1213 ;
1214 [label="mse = 0.0\nsamples = 2\nvalue = 3.3"] ;
1213 -> 1214 ;
1215 [label="mse = 0.0\nsamples = 1\nvalue = 3.3"] ;
1213 -> 1215 ;
1216 [label="mse = 0.0\nsamples = 3\nvalue = 3.3"] ;
1212 -> 1216 ;
1217 [label="Adj Close <= 2.1\nmse = 0.0\nsamples = 3\nvalue = 3.4"] ;
1203 -> 1217 ;
1218 [label="Day <= 9.5\nmse = 0.0\nsamples = 2\nvalue = 3.3"] ;
1217 -> 1218 ;
1219 [label="mse = 0.0\nsamples = 1\nvalue = 3.3"] ;
1218 -> 1219 ;
1220 [label="mse = 0.0\nsamples = 1\nvalue = 3.3"] ;
1218 -> 1220 ;
1221 [label="mse = 0.0\nsamples = 1\nvalue = 3.4"] ;
1217 -> 1221 ;
1222 [label="Adj Close <= 2.2\nmse = 0.0\nsamples = 27\nvalue = 3.5"] ;
1202 -> 1222 ;
1223 [label="Adj Close <= 2.2\nmse = 0.0\nsamples = 16\nvalue = 3.5"] ;
1222 -> 1223 ;
1224 [label="High <= 3.5\nmse = 0.0\nsamples = 7\nvalue = 3.4"] ;
1223 -> 1224 ;
1225 [label="Adj Close <= 2.2\nmse = 0.0\nsamples = 5\nvalue = 3.4"] ;
1224 -> 1225 ;
1226 [label="Adj Close <= 2.2\nmse = 0.0\nsamples = 3\nvalue = 3.4"] ;
1225 -> 1226 ;
1227 [label="mse = 0.0\nsamples = 1\nvalue = 3.4"] ;
1226 -> 1227 ;
1228 [label="mse = 0.0\nsamples = 2\nvalue = 3.4"] ;
1226 -> 1228 ;
1229 [label="Adj Close <= 2.2\nmse = 0.0\nsamples = 2\nvalue = 3.4"] ;
1225 -> 1229 ;
1230 [label="mse = 0.0\nsamples = 1\nvalue = 3.4"] ;
1229 -> 1230 ;
1231 [label="mse = 0.0\nsamples = 1\nvalue = 3.4"] ;
1229 -> 1231 ;
1232 [label="Low <= 3.4\nmse = 0.0\nsamples = 2\nvalue = 3.4"] ;
1224 -> 1232 ;
1233 [label="mse = 0.0\nsamples = 1\nvalue = 3.4"] ;
1232 -> 1233 ;
1234 [label="mse = 0.0\nsamples = 1\nvalue = 3.4"] ;
1232 -> 1234 ;
1235 [label="Adj Close <= 2.2\nmse = 0.0\nsamples = 9\nvalue = 3.5"] ;
1223 -> 1235 ;
1236 [label="Day <= 22.0\nmse = 0.0\nsamples = 3\nvalue = 3.5"] ;
1235 -> 1236 ;
1237 [label="mse = 0.0\nsamples = 2\nvalue = 3.5"] ;
1236 -> 1237 ;
1238 [label="mse = 0.0\nsamples = 1\nvalue = 3.5"] ;
1236 -> 1238 ;
1239 [label="Low <= 3.5\nmse = 0.0\nsamples = 6\nvalue = 3.5"] ;
1235 -> 1239 ;
1240 [label="mse = 0.0\nsamples = 2\nvalue = 3.5"] ;
1239 -> 1240 ;
1241 [label="Adj Close <= 2.2\nmse = 0.0\nsamples = 4\nvalue = 3.5"] ;
1239 -> 1241 ;
1242 [label="mse = 0.0\nsamples = 3\nvalue = 3.5"] ;
1241 -> 1242 ;
1243 [label="mse = 0.0\nsamples = 1\nvalue = 3.5"] ;
1241 -> 1243 ;
1244 [label="Adj Close <= 2.3\nmse = 0.0\nsamples = 11\nvalue = 3.6"] ;
1222 -> 1244 ;
1245 [label="Adj Close <= 2.3\nmse = 0.0\nsamples = 7\nvalue = 3.6"] ;
1244 -> 1245 ;
1246 [label="Adj Close <= 2.3\nmse = 0.0\nsamples = 3\nvalue = 3.5"] ;
1245 -> 1246 ;
1247 [label="mse = 0.0\nsamples = 2\nvalue = 3.5"] ;
1246 -> 1247 ;
1248 [label="mse = 0.0\nsamples = 1\nvalue = 3.5"] ;
1246 -> 1248 ;
1249 [label="Adj Close <= 2.3\nmse = 0.0\nsamples = 4\nvalue = 3.6"] ;
1245 -> 1249 ;
1250 [label="mse = 0.0\nsamples = 1\nvalue = 3.6"] ;
1249 -> 1250 ;
1251 [label="High <= 3.6\nmse = 0.0\nsamples = 3\nvalue = 3.6"] ;
1249 -> 1251 ;
1252 [label="mse = 0.0\nsamples = 1\nvalue = 3.6"] ;
1251 -> 1252 ;
1253 [label="Open <= 3.6\nmse = 0.0\nsamples = 2\nvalue = 3.6"] ;
1251 -> 1253 ;
1254 [label="mse = 0.0\nsamples = 1\nvalue = 3.6"] ;
1253 -> 1254 ;
1255 [label="mse = 0.0\nsamples = 1\nvalue = 3.6"] ;
1253 -> 1255 ;
1256 [label="Day <= 25.0\nmse = 0.0\nsamples = 4\nvalue = 3.6"] ;
1244 -> 1256 ;
1257 [label="Open <= 3.5\nmse = 0.0\nsamples = 3\nvalue = 3.6"] ;
1256 -> 1257 ;
1258 [label="mse = 0.0\nsamples = 1\nvalue = 3.6"] ;
1257 -> 1258 ;
1259 [label="mse = 0.0\nsamples = 2\nvalue = 3.6"] ;
1257 -> 1259 ;
1260 [label="mse = 0.0\nsamples = 1\nvalue = 3.6"] ;
1256 -> 1260 ;
1261 [label="Adj Close <= 2.5\nmse = 0.0\nsamples = 51\nvalue = 3.8"] ;
1201 -> 1261 ;
1262 [label="Adj Close <= 2.4\nmse = 0.0\nsamples = 24\nvalue = 3.8"] ;
1261 -> 1262 ;
1263 [label="Adj Close <= 2.4\nmse = 0.0\nsamples = 15\nvalue = 3.7"] ;
1262 -> 1263 ;
1264 [label="Adj Close <= 2.4\nmse = 0.0\nsamples = 7\nvalue = 3.7"] ;
1263 -> 1264 ;
1265 [label="Low <= 3.6\nmse = 0.0\nsamples = 2\nvalue = 3.7"] ;
1264 -> 1265 ;
1266 [label="mse = 0.0\nsamples = 1\nvalue = 3.6"] ;
1265 -> 1266 ;
1267 [label="mse = 0.0\nsamples = 1\nvalue = 3.7"] ;
1265 -> 1267 ;
1268 [label="Adj Close <= 2.4\nmse = 0.0\nsamples = 5\nvalue = 3.7"] ;
1264 -> 1268 ;
1269 [label="mse = 0.0\nsamples = 2\nvalue = 3.7"] ;
1268 -> 1269 ;
1270 [label="Adj Close <= 2.4\nmse = 0.0\nsamples = 3\nvalue = 3.7"] ;
1268 -> 1270 ;
1271 [label="mse = 0.0\nsamples = 2\nvalue = 3.7"] ;
1270 -> 1271 ;
1272 [label="mse = 0.0\nsamples = 1\nvalue = 3.7"] ;
1270 -> 1272 ;
1273 [label="Adj Close <= 2.4\nmse = 0.0\nsamples = 8\nvalue = 3.8"] ;
1263 -> 1273 ;
1274 [label="Adj Close <= 2.4\nmse = 0.0\nsamples = 4\nvalue = 3.7"] ;
1273 -> 1274 ;
1275 [label="mse = 0.0\nsamples = 1\nvalue = 3.7"] ;
1274 -> 1275 ;
1276 [label="mse = 0.0\nsamples = 3\nvalue = 3.7"] ;
1274 -> 1276 ;
1277 [label="Day <= 6.0\nmse = 0.0\nsamples = 4\nvalue = 3.8"] ;
1273 -> 1277 ;
1278 [label="Month <= 1.5\nmse = 0.0\nsamples = 2\nvalue = 3.8"] ;
1277 -> 1278 ;
1279 [label="mse = 0.0\nsamples = 1\nvalue = 3.8"] ;
1278 -> 1279 ;
1280 [label="mse = 0.0\nsamples = 1\nvalue = 3.8"] ;
1278 -> 1280 ;
1281 [label="Low <= 3.8\nmse = 0.0\nsamples = 2\nvalue = 3.8"] ;
1277 -> 1281 ;
1282 [label="mse = 0.0\nsamples = 1\nvalue = 3.8"] ;
1281 -> 1282 ;
1283 [label="mse = 0.0\nsamples = 1\nvalue = 3.8"] ;
1281 -> 1283 ;
1284 [label="Adj Close <= 2.4\nmse = 0.0\nsamples = 9\nvalue = 3.8"] ;
1262 -> 1284 ;
1285 [label="Adj Close <= 2.4\nmse = 0.0\nsamples = 5\nvalue = 3.8"] ;
1284 -> 1285 ;
1286 [label="High <= 3.8\nmse = 0.0\nsamples = 3\nvalue = 3.8"] ;
1285 -> 1286 ;
1287 [label="mse = 0.0\nsamples = 1\nvalue = 3.8"] ;
1286 -> 1287 ;
1288 [label="mse = 0.0\nsamples = 2\nvalue = 3.8"] ;
1286 -> 1288 ;
1289 [label="Open <= 3.8\nmse = 0.0\nsamples = 2\nvalue = 3.8"] ;
1285 -> 1289 ;
1290 [label="mse = 0.0\nsamples = 1\nvalue = 3.8"] ;
1289 -> 1290 ;
1291 [label="mse = 0.0\nsamples = 1\nvalue = 3.8"] ;
1289 -> 1291 ;
1292 [label="Volume <= 43949600.0\nmse = 0.0\nsamples = 4\nvalue = 3.8"] ;
1284 -> 1292 ;
1293 [label="mse = 0.0\nsamples = 1\nvalue = 3.8"] ;
1292 -> 1293 ;
1294 [label="mse = 0.0\nsamples = 3\nvalue = 3.8"] ;
1292 -> 1294 ;
1295 [label="Adj Close <= 2.5\nmse = 0.0\nsamples = 27\nvalue = 3.9"] ;
1261 -> 1295 ;
1296 [label="Adj Close <= 2.5\nmse = 0.0\nsamples = 22\nvalue = 3.9"] ;
1295 -> 1296 ;
1297 [label="Adj Close <= 2.5\nmse = 0.0\nsamples = 8\nvalue = 3.9"] ;
1296 -> 1297 ;
1298 [label="Adj Close <= 2.5\nmse = 0.0\nsamples = 6\nvalue = 3.9"] ;
1297 -> 1298 ;
1299 [label="Month <= 1.5\nmse = 0.0\nsamples = 3\nvalue = 3.9"] ;
1298 -> 1299 ;
1300 [label="mse = 0.0\nsamples = 1\nvalue = 3.9"] ;
1299 -> 1300 ;
1301 [label="Month <= 7.0\nmse = 0.0\nsamples = 2\nvalue = 3.9"] ;
1299 -> 1301 ;
1302 [label="mse = 0.0\nsamples = 1\nvalue = 3.9"] ;
1301 -> 1302 ;
1303 [label="mse = 0.0\nsamples = 1\nvalue = 3.9"] ;
1301 -> 1303 ;
1304 [label="Low <= 3.8\nmse = 0.0\nsamples = 3\nvalue = 3.9"] ;
1298 -> 1304 ;
1305 [label="mse = 0.0\nsamples = 1\nvalue = 3.9"] ;
1304 -> 1305 ;
1306 [label="mse = 0.0\nsamples = 2\nvalue = 3.9"] ;
1304 -> 1306 ;
1307 [label="High <= 4.0\nmse = 0.0\nsamples = 2\nvalue = 3.9"] ;
1297 -> 1307 ;
1308 [label="mse = 0.0\nsamples = 1\nvalue = 3.9"] ;
1307 -> 1308 ;
1309 [label="mse = 0.0\nsamples = 1\nvalue = 3.9"] ;
1307 -> 1309 ;
1310 [label="Adj Close <= 2.5\nmse = 0.0\nsamples = 14\nvalue = 3.9"] ;
1296 -> 1310 ;
1311 [label="Adj Close <= 2.5\nmse = 0.0\nsamples = 7\nvalue = 3.9"] ;
1310 -> 1311 ;
1312 [label="Adj Close <= 2.5\nmse = 0.0\nsamples = 4\nvalue = 3.9"] ;
1311 -> 1312 ;
1313 [label="mse = 0.0\nsamples = 1\nvalue = 3.9"] ;
1312 -> 1313 ;
1314 [label="Open <= 3.8\nmse = 0.0\nsamples = 3\nvalue = 3.9"] ;
1312 -> 1314 ;
1315 [label="mse = 0.0\nsamples = 1\nvalue = 3.9"] ;
1314 -> 1315 ;
1316 [label="mse = 0.0\nsamples = 2\nvalue = 3.9"] ;
1314 -> 1316 ;
1317 [label="mse = 0.0\nsamples = 3\nvalue = 3.9"] ;
1311 -> 1317 ;
1318 [label="Adj Close <= 2.5\nmse = 0.0\nsamples = 7\nvalue = 4.0"] ;
1310 -> 1318 ;
1319 [label="Adj Close <= 2.5\nmse = 0.0\nsamples = 4\nvalue = 4.0"] ;
1318 -> 1319 ;
1320 [label="mse = 0.0\nsamples = 1\nvalue = 3.9"] ;
1319 -> 1320 ;
1321 [label="Volume <= 37940800.0\nmse = 0.0\nsamples = 3\nvalue = 4.0"] ;
1319 -> 1321 ;
1322 [label="mse = 0.0\nsamples = 2\nvalue = 4.0"] ;
1321 -> 1322 ;
1323 [label="mse = 0.0\nsamples = 1\nvalue = 4.0"] ;
1321 -> 1323 ;
1324 [label="High <= 4.0\nmse = 0.0\nsamples = 3\nvalue = 4.0"] ;
1318 -> 1324 ;
1325 [label="mse = 0.0\nsamples = 2\nvalue = 4.0"] ;
1324 -> 1325 ;
1326 [label="mse = 0.0\nsamples = 1\nvalue = 4.0"] ;
1324 -> 1326 ;
1327 [label="Adj Close <= 2.6\nmse = 0.0\nsamples = 5\nvalue = 4.0"] ;
1295 -> 1327 ;
1328 [label="mse = 0.0\nsamples = 1\nvalue = 4.0"] ;
1327 -> 1328 ;
1329 [label="Volume <= 47045600.0\nmse = 0.0\nsamples = 4\nvalue = 4.0"] ;
1327 -> 1329 ;
1330 [label="mse = 0.0\nsamples = 1\nvalue = 4.0"] ;
1329 -> 1330 ;
1331 [label="Open <= 4.0\nmse = 0.0\nsamples = 3\nvalue = 4.0"] ;
1329 -> 1331 ;
1332 [label="mse = 0.0\nsamples = 1\nvalue = 4.0"] ;
1331 -> 1332 ;
1333 [label="Low <= 4.0\nmse = 0.0\nsamples = 2\nvalue = 4.0"] ;
1331 -> 1333 ;
1334 [label="mse = 0.0\nsamples = 1\nvalue = 4.0"] ;
1333 -> 1334 ;
1335 [label="mse = 0.0\nsamples = 1\nvalue = 4.0"] ;
1333 -> 1335 ;
1336 [label="Adj Close <= 3.0\nmse = 0.1\nsamples = 25\nvalue = 4.7"] ;
1200 -> 1336 ;
1337 [label="High <= 4.6\nmse = 0.0\nsamples = 13\nvalue = 4.5"] ;
1336 -> 1337 ;
1338 [label="Adj Close <= 2.8\nmse = 0.0\nsamples = 10\nvalue = 4.4"] ;
1337 -> 1338 ;
1339 [label="Month <= 3.5\nmse = 0.0\nsamples = 3\nvalue = 4.3"] ;
1338 -> 1339 ;
1340 [label="mse = 0.0\nsamples = 1\nvalue = 4.3"] ;
1339 -> 1340 ;
1341 [label="High <= 4.4\nmse = 0.0\nsamples = 2\nvalue = 4.4"] ;
1339 -> 1341 ;
1342 [label="mse = 0.0\nsamples = 1\nvalue = 4.4"] ;
1341 -> 1342 ;
1343 [label="mse = 0.0\nsamples = 1\nvalue = 4.4"] ;
1341 -> 1343 ;
1344 [label="High <= 4.5\nmse = 0.0\nsamples = 7\nvalue = 4.5"] ;
1338 -> 1344 ;
1345 [label="Volume <= 54879200.0\nmse = 0.0\nsamples = 4\nvalue = 4.4"] ;
1344 -> 1345 ;
1346 [label="mse = 0.0\nsamples = 2\nvalue = 4.4"] ;
1345 -> 1346 ;
1347 [label="Adj Close <= 2.8\nmse = 0.0\nsamples = 2\nvalue = 4.4"] ;
1345 -> 1347 ;
1348 [label="mse = 0.0\nsamples = 1\nvalue = 4.4"] ;
1347 -> 1348 ;
1349 [label="mse = 0.0\nsamples = 1\nvalue = 4.4"] ;
1347 -> 1349 ;
