digraph Tree {
node [shape=box, style="rounded", color="black", fontname=helvetica] ;
edge [fontname=helvetica] ;
0 [label="High <= 77.1\nmse = 1350.7\nsamples = 4387\nvalue = 31.8"] ;
1 [label="High <= 19.0\nmse = 302.2\nsamples = 4014\nvalue = 22.4"] ;
0 -> 1 [labeldistance=2.5, labelangle=45, headlabel="True"] ;
2 [label="Low <= 8.2\nmse = 21.0\nsamples = 1535\nvalue = 3.6"] ;
1 -> 2 ;
3 [label="High <= 3.4\nmse = 4.1\nsamples = 1336\nvalue = 2.1"] ;
2 -> 3 ;
4 [label="High <= 1.5\nmse = 1.0\nsamples = 1054\nvalue = 1.3"] ;
3 -> 4 ;
5 [label="mse = 0.1\nsamples = 634\nvalue = 0.5"] ;
4 -> 5 ;
6 [label="mse = 0.2\nsamples = 420\nvalue = 2.4"] ;
4 -> 6 ;
7 [label="High <= 5.2\nmse = 1.6\nsamples = 282\nvalue = 5.5"] ;
3 -> 7 ;
8 [label="mse = 0.3\nsamples = 101\nvalue = 4.1"] ;
7 -> 8 ;
9 [label="mse = 0.6\nsamples = 181\nvalue = 6.3"] ;
7 -> 9 ;
10 [label="High <= 13.4\nmse = 10.5\nsamples = 199\nvalue = 14.4"] ;
2 -> 10 ;
11 [label="High <= 10.9\nmse = 2.5\nsamples = 72\nvalue = 10.5"] ;
10 -> 11 ;
12 [label="mse = 0.7\nsamples = 38\nvalue = 9.3"] ;
11 -> 12 ;
13 [label="mse = 0.2\nsamples = 34\nvalue = 12.1"] ;
11 -> 13 ;
14 [label="Low <= 16.3\nmse = 1.0\nsamples = 127\nvalue = 16.7"] ;
10 -> 14 ;
15 [label="mse = 0.5\nsamples = 52\nvalue = 15.7"] ;
14 -> 15 ;
16 [label="mse = 0.3\nsamples = 75\nvalue = 17.3"] ;
14 -> 16 ;
17 [label="Low <= 39.2\nmse = 129.3\nsamples = 2479\nvalue = 33.8"] ;
1 -> 17 ;
18 [label="Low <= 29.3\nmse = 16.2\nsamples = 1889\nvalue = 28.3"] ;
17 -> 18 ;
19 [label="High <= 25.9\nmse = 5.0\nsamples = 1322\nvalue = 26.1"] ;
18 -> 19 ;
20 [label="mse = 3.1\nsamples = 464\nvalue = 23.8"] ;
19 -> 20 ;
21 [label="mse = 1.3\nsamples = 858\nvalue = 27.4"] ;
19 -> 21 ;
22 [label="Low <= 33.2\nmse = 7.8\nsamples = 567\nvalue = 33.2"] ;
18 -> 22 ;
23 [label="mse = 1.5\nsamples = 325\nvalue = 31.2"] ;
22 -> 23 ;
24 [label="mse = 2.9\nsamples = 242\nvalue = 36.0"] ;
22 -> 24 ;
25 [label="High <= 55.1\nmse = 82.8\nsamples = 590\nvalue = 51.3"] ;
17 -> 25 ;
26 [label="High <= 48.5\nmse = 16.5\nsamples = 412\nvalue = 46.3"] ;
25 -> 26 ;
27 [label="mse = 5.8\nsamples = 289\nvalue = 44.2"] ;
26 -> 27 ;
28 [label="mse = 4.3\nsamples = 123\nvalue = 51.5"] ;
26 -> 28 ;
29 [label="High <= 64.1\nmse = 43.2\nsamples = 178\nvalue = 63.1"] ;
25 -> 29 ;
30 [label="mse = 6.4\nsamples = 97\nvalue = 58.0"] ;
29 -> 30 ;
31 [label="mse = 14.7\nsamples = 81\nvalue = 69.6"] ;
29 -> 31 ;
32 [label="Open <= 147.1\nmse = 1557.1\nsamples = 373\nvalue = 132.2"] ;
0 -> 32 [labeldistance=2.5, labelangle=-45, headlabel="False"] ;
33 [label="High <= 117.4\nmse = 352.8\nsamples = 261\nvalue = 111.2"] ;
32 -> 33 ;
34 [label="Low <= 98.0\nmse = 96.2\nsamples = 178\nvalue = 99.4"] ;
33 -> 34 ;
35 [label="High <= 89.3\nmse = 32.2\nsamples = 85\nvalue = 90.5"] ;
34 -> 35 ;
36 [label="mse = 7.8\nsamples = 29\nvalue = 83.2"] ;
35 -> 36 ;
37 [label="mse = 7.3\nsamples = 56\nvalue = 93.9"] ;
35 -> 37 ;
38 [label="Low <= 105.0\nmse = 18.1\nsamples = 93\nvalue = 107.4"] ;
34 -> 38 ;
39 [label="mse = 5.4\nsamples = 38\nvalue = 103.3"] ;
38 -> 39 ;
40 [label="mse = 6.9\nsamples = 55\nvalue = 110.3"] ;
38 -> 40 ;
41 [label="Low <= 130.1\nmse = 50.2\nsamples = 83\nvalue = 134.2"] ;
33 -> 41 ;
42 [label="Open <= 124.0\nmse = 17.3\nsamples = 23\nvalue = 123.8"] ;
41 -> 42 ;
43 [label="mse = 2.3\nsamples = 8\nvalue = 119.0"] ;
42 -> 43 ;
44 [label="mse = 3.8\nsamples = 15\nvalue = 126.7"] ;
42 -> 44 ;
45 [label="High <= 138.2\nmse = 8.8\nsamples = 60\nvalue = 138.0"] ;
41 -> 45 ;
46 [label="mse = 2.4\nsamples = 22\nvalue = 135.4"] ;
45 -> 46 ;
47 [label="mse = 6.1\nsamples = 38\nvalue = 139.6"] ;
45 -> 47 ;
48 [label="Low <= 186.7\nmse = 559.6\nsamples = 112\nvalue = 187.0"] ;
32 -> 48 ;
49 [label="High <= 170.3\nmse = 162.3\nsamples = 64\nvalue = 168.4"] ;
48 -> 49 ;
50 [label="High <= 157.8\nmse = 31.7\nsamples = 31\nvalue = 157.3"] ;
49 -> 50 ;
51 [label="mse = 3.4\nsamples = 16\nvalue = 152.1"] ;
50 -> 51 ;
52 [label="mse = 11.2\nsamples = 15\nvalue = 162.0"] ;
50 -> 52 ;
53 [label="Low <= 178.8\nmse = 45.0\nsamples = 33\nvalue = 179.5"] ;
49 -> 53 ;
54 [label="mse = 12.2\nsamples = 15\nvalue = 172.9"] ;
53 -> 54 ;
55 [label="mse = 4.0\nsamples = 18\nvalue = 185.1"] ;
53 -> 55 ;
56 [label="High <= 217.5\nmse = 79.4\nsamples = 48\nvalue = 210.3"] ;
48 -> 56 ;
57 [label="Low <= 202.4\nmse = 33.8\nsamples = 40\nvalue = 206.9"] ;
56 -> 57 ;
58 [label="mse = 21.4\nsamples = 14\nvalue = 201.1"] ;
57 -> 58 ;
59 [label="mse = 9.1\nsamples = 26\nvalue = 210.4"] ;
57 -> 59 ;
60 [label="High <= 226.3\nmse = 11.4\nsamples = 8\nvalue = 224.8"] ;
56 -> 60 ;
61 [label="mse = 5.4\nsamples = 4\nvalue = 220.9"] ;
60 -> 61 ;
62 [label="mse = 1.4\nsamples = 4\nvalue = 227.0"] ;
60 -> 62 ;
}