digraph Tree {
node [shape=box, style="rounded", color="black", fontname=helvetica] ;
edge [fontname=helvetica] ;
0 [label="Low <= 76.2\nmse = 1362.9\nsamples = 5485\nvalue = 31.7"] ;
1 [label="High <= 18.9\nmse = 303.7\nsamples = 4993\nvalue = 22.2"] ;
0 -> 1 [labeldistance=2.5, labelangle=45, headlabel="True"] ;
2 [label="Low <= 7.9\nmse = 21.3\nsamples = 1925\nvalue = 3.7"] ;
1 -> 2 ;
3 [label="Low <= 3.4\nmse = 4.3\nsamples = 1665\nvalue = 2.2"] ;
2 -> 3 ;
4 [label="Low <= 1.5\nmse = 1.0\nsamples = 1333\nvalue = 1.3"] ;
3 -> 4 ;
5 [label="mse = 0.1\nsamples = 823\nvalue = 0.5"] ;
4 -> 5 ;
6 [label="mse = 0.2\nsamples = 510\nvalue = 2.5"] ;
4 -> 6 ;
7 [label="High <= 5.9\nmse = 1.7\nsamples = 332\nvalue = 5.7"] ;
3 -> 7 ;
8 [label="mse = 0.7\nsamples = 184\nvalue = 4.7"] ;
7 -> 8 ;
9 [label="mse = 0.5\nsamples = 148\nvalue = 6.9"] ;
7 -> 9 ;
10 [label="Open <= 13.4\nmse = 10.9\nsamples = 260\nvalue = 14.1"] ;
2 -> 10 ;
11 [label="Low <= 10.6\nmse = 2.6\nsamples = 108\nvalue = 10.4"] ;
10 -> 11 ;
12 [label="mse = 0.7\nsamples = 63\nvalue = 9.2"] ;
11 -> 12 ;
13 [label="mse = 0.2\nsamples = 45\nvalue = 12.1"] ;
11 -> 13 ;
14 [label="Low <= 16.3\nmse = 1.0\nsamples = 152\nvalue = 16.6"] ;
10 -> 14 ;
15 [label="mse = 0.5\nsamples = 61\nvalue = 15.7"] ;
14 -> 15 ;
16 [label="mse = 0.3\nsamples = 91\nvalue = 17.3"] ;
14 -> 16 ;
17 [label="Low <= 40.0\nmse = 134.2\nsamples = 3068\nvalue = 33.7"] ;
1 -> 17 ;
18 [label="Low <= 30.0\nmse = 19.1\nsamples = 2368\nvalue = 28.4"] ;
17 -> 18 ;
19 [label="High <= 26.0\nmse = 6.0\nsamples = 1746\nvalue = 26.3"] ;
18 -> 19 ;
20 [label="mse = 3.8\nsamples = 593\nvalue = 23.7"] ;
19 -> 20 ;
21 [label="mse = 1.6\nsamples = 1153\nvalue = 27.7"] ;
19 -> 21 ;
22 [label="High <= 35.3\nmse = 8.6\nsamples = 622\nvalue = 34.3"] ;
18 -> 22 ;
23 [label="mse = 2.2\nsamples = 386\nvalue = 32.3"] ;
22 -> 23 ;
24 [label="mse = 3.2\nsamples = 236\nvalue = 37.4"] ;
22 -> 24 ;
25 [label="Low <= 55.1\nmse = 91.1\nsamples = 700\nvalue = 52.5"] ;
17 -> 25 ;
26 [label="High <= 48.8\nmse = 15.9\nsamples = 489\nvalue = 46.9"] ;
25 -> 26 ;
27 [label="mse = 4.7\nsamples = 337\nvalue = 44.6"] ;
26 -> 27 ;
28 [label="mse = 4.3\nsamples = 152\nvalue = 51.8"] ;
26 -> 28 ;
29 [label="Open <= 66.9\nmse = 39.4\nsamples = 211\nvalue = 64.7"] ;
25 -> 29 ;
30 [label="mse = 10.1\nsamples = 141\nvalue = 60.5"] ;
29 -> 30 ;
31 [label="mse = 5.5\nsamples = 70\nvalue = 72.2"] ;
29 -> 31 ;
32 [label="Open <= 147.3\nmse = 1530.9\nsamples = 492\nvalue = 131.4"] ;
0 -> 32 [labeldistance=2.5, labelangle=-45, headlabel="False"] ;
33 [label="Low <= 115.5\nmse = 338.2\nsamples = 351\nvalue = 110.9"] ;
32 -> 33 ;
34 [label="High <= 98.5\nmse = 103.0\nsamples = 229\nvalue = 99.7"] ;
33 -> 34 ;
35 [label="Low <= 87.2\nmse = 29.0\nsamples = 98\nvalue = 89.0"] ;
34 -> 35 ;
36 [label="mse = 9.9\nsamples = 38\nvalue = 83.2"] ;
35 -> 36 ;
37 [label="mse = 7.6\nsamples = 60\nvalue = 92.5"] ;
35 -> 37 ;
38 [label="Low <= 104.7\nmse = 19.1\nsamples = 131\nvalue = 107.1"] ;
34 -> 38 ;
39 [label="mse = 5.5\nsamples = 50\nvalue = 102.5"] ;
38 -> 39 ;
40 [label="mse = 7.7\nsamples = 81\nvalue = 109.8"] ;
38 -> 40 ;
41 [label="High <= 131.7\nmse = 57.3\nsamples = 122\nvalue = 133.3"] ;
33 -> 41 ;
42 [label="Low <= 121.8\nmse = 17.3\nsamples = 38\nvalue = 123.9"] ;
41 -> 42 ;
43 [label="mse = 2.5\nsamples = 17\nvalue = 119.5"] ;
42 -> 43 ;
44 [label="mse = 3.6\nsamples = 21\nvalue = 127.1"] ;
42 -> 44 ;
45 [label="High <= 141.0\nmse = 12.8\nsamples = 84\nvalue = 137.9"] ;
41 -> 45 ;
46 [label="mse = 4.4\nsamples = 63\nvalue = 136.4"] ;
45 -> 46 ;
47 [label="mse = 10.7\nsamples = 21\nvalue = 142.6"] ;
45 -> 47 ;
48 [label="High <= 196.0\nmse = 543.5\nsamples = 141\nvalue = 186.7"] ;
32 -> 48 ;
49 [label="High <= 170.6\nmse = 190.1\nsamples = 80\nvalue = 168.9"] ;
48 -> 49 ;
50 [label="High <= 157.8\nmse = 31.2\nsamples = 42\nvalue = 156.1"] ;
49 -> 50 ;
51 [label="mse = 4.2\nsamples = 21\nvalue = 151.8"] ;
50 -> 51 ;
52 [label="mse = 10.5\nsamples = 21\nvalue = 161.7"] ;
50 -> 52 ;
53 [label="Open <= 176.6\nmse = 32.8\nsamples = 38\nvalue = 181.3"] ;
49 -> 53 ;
54 [label="mse = 7.7\nsamples = 8\nvalue = 172.6"] ;
53 -> 54 ;
55 [label="mse = 7.3\nsamples = 30\nvalue = 184.2"] ;
53 -> 55 ;
56 [label="Low <= 209.8\nmse = 52.5\nsamples = 61\nvalue = 209.9"] ;
48 -> 56 ;
57 [label="Low <= 202.7\nmse = 16.3\nsamples = 42\nvalue = 206.2"] ;
56 -> 57 ;
58 [label="mse = 10.9\nsamples = 19\nvalue = 202.3"] ;
57 -> 58 ;
59 [label="mse = 4.2\nsamples = 23\nvalue = 208.7"] ;
57 -> 59 ;
60 [label="Low <= 216.4\nmse = 28.8\nsamples = 19\nvalue = 218.8"] ;
56 -> 60 ;
61 [label="mse = 3.6\nsamples = 12\nvalue = 215.1"] ;
60 -> 61 ;
62 [label="mse = 11.7\nsamples = 7\nvalue = 224.7"] ;
60 -> 62 ;
}